tree
version=v4
num_class=1
num_tree_per_iteration=1
label_index=0
max_feature_idx=9
objective=regression
feature_names=ret_1 ret_4 ret_12 ma_dist_8 ma_dist_24 vol_24 breakout_high_24 breakout_low_24 volume_z_24 atr_14
feature_infos=[-0.388769053781996:0.63055089272089115] [-0.64794798525696773:1.7415687471387149] [-0.68778463346555019:1.9745787332945959] [-0.5907003617060973:0.85858088348468531] [-0.59769530187049669:1.2562047042201931] [0.00059403325512332611:0.21387426864754236] [-0.79357486280413769:0] [0:3.8846357382254366] [-2.4393365730708538:4.6947382084387774] [0.00021428571428571398:2709.9071428571415]
tree_sizes=2928 2931 2949 2969 2989 2929 2923 2949 2948 2953 2930 2952 3008 2965 3016 2969 2910 3003 2944 2978 2996 3014 2989 2966 2999 2947 2994 2958 2957 2969 2950 3011 2951 2958 2974 2987 2983 2983 3004 3006 2989 2949 2949 2957 2984 2979 2996 2963 2997 2986 2950 2990 2990 2988 3006 2995 3020 2995 3004 2996 2979 2977 2986 3001 2992 2992 2965 2978 2974 2970 2980 2996 2975 3001 2983 3020 2955 2950 3023 2998 2965 2963 2995 2994 2943 2974 2965 3000 3030 2973 2935 2975 2964 2962 3045 2959 2958 2963 2983 2964 2983 3029 3040 2971 3027 2934 2983 2966 2946 2955 2993 2977 2987 2980 3015 2940 2966 2976 3024 2956 2971 2974 2969 2966 2987 2970 2982 2980 2972 2974 2953 3026 2986 2960 2987 2972 2989 2989 2973 2964 3027 2946 2972 3022 3037 2981 3000 3006 2982 2970 2995 3014 2958 2927 2972 2958 2951 2956 2953 2949 3005 2978 2978 2964 3000 2991 2972 3006 2981 2975 2941 2960 2945 2981 2968 2989 3066 3054 2960 3022 3034 2970 2961 3043 2975 2963 2991 3018 2993 2997 2946 2949 2938 2974 2975 2948 2999 2957 2959 2953 2967 2963 2950 2951 2964 2982 2982 2983 3000 2957 2967 2963 2960 2965 2989 2983 2982 2994 2977 2976 2988 2985 2966 2969 2982 2960 3005 3027 2952 2973 3018 3038 3021 3059 2977 2989 3023 3025 2971 3006 3020 3080 2977 2983 2989 3027 3018 3012 2993 2979 3029 2982 2995 3011 2977 2963 2951 2955 2975 2946 2957 2984 2930 2976 2972 2961 2972 2979 2984 2975 3014 2996 3001 2982 2997 2993 3005 3045 3049 3015 2980 3001 2989 3033 2985 2991 3000 3003 3050 3008 2960 2977 2957 3019 2950 3037 3028 2998 3026 2989

Tree=0
num_leaves=31
num_cat=0
split_feature=4 7 0 6 8 5 7 6 4 7 1 8 8 2 6 5 0 7 5 7 4 6 0 2 1 1 6 5 7 7
split_gain=0.347323 0.237525 0.306959 0.213216 0.118566 0.106594 0.18864 0.347958 0.194344 0.177952 0.112815 0.178463 0.174006 0.168713 0.1308 0.17468 0.102479 0.0941324 0.113076 0.0880774 0.0867191 0.0848215 0.112017 0.10231 0.1646 0.315642 0.0795115 0.0736391 0.0675221 0.0684252
threshold=-0.082406716070395 0.073204498215360916 -0.031489344111874977 -0.30882134493045332 -0.49294968436151759 0.030735012391754444 0.38520282591039928 -0.24061591555815906 0.06083892910536904 0.62929212311110927 0.12400818798685288 -0.2772987645675361 0.25350508525412996 0.24034639762535262 -0.048139432629880845 0.058392501977723603 0.034879965954890298 0.62929212311110927 0.047430275854902955 0.080460426029852053 -0.12593314166347444 -0.046229814397079176 0.0004383473703153396 -0.091436274319820085 0.015639219872835012 0.038118248705803832 -0.075389561765300137 0.04141268979674758 0.38520282591039928 0.13924310603983706
decision_type=2 2 2 2 2 2 2 2 2 2 2 2 2 2 2 2 2 2 2 2 2 2 2 2 2 2 2 2 2 2
left_child=1 4 3 -3 20 28 21 8 -8 -10 11 -9 -12 -13 16 -16 -14 18 -15 -4 -1 23 -23 24 -7 -26 -19 -22 29 -2
right_child=5 2 19 -5 -6 6 7 10 9 -11 12 13 14 17 15 -17 -18 26 -20 -21 27 22 -24 -25 25 -27 -28 -29 -30 -31
leaf_value=-0.0011437092095268838 0.00058653228128158403 0.0080238707424031518 0.0047485198977697514 0.0025736369226535467 0.0013687930861848445 0.0012958055025002416 8.279094694235256e-05 -1.6590071886384136e-05 -0.00069792335267101862 -0.0065517945580018198 0.0038125157970733243 0.00067566631352577273 -0.00045174074344852806 0.0044656497088275291 -0.0016911047256734147 0.003278230664391573 -0.0048847455689594388 0.0076678209437903251 -6.9328140110319625e-05 0.0015173382653619009 0.00029965630034274393 0.0040987351749189509 0.0014269693320832942 0.00089431977037360581 0.0092304484734492351 0.00098869328874455096 0.0033571951244021963 0.0030210953272172799 -0.00089797781063899104 0.00085148009499264846
leaf_weight=90 101222 38 23 34 663 156 39 187 20 37 20 98 22 28 48 28 32 20 27 254 145 51 170 1834 21 26 23 30 76 2497
leaf_count=90 101222 38 23 34 663 156 39 187 20 37 20 98 22 28 48 28 32 20 27 254 145 51 170 1834 21 26 23 30 76 2497
internal_value=0.000609967 0.00142967 0.00254164 0.00545015 0.00101149 0.000600155 0.000899833 0.000134058 -0.00263694 -0.0044978 0.00063315 0.00108838 -0.000529216 0.00214262 -0.00119717 0.000139703 -0.00307871 0.00360957 0.00223939 0.00178563 0.000117544 0.00111315 0.00204353 0.00101221 0.0020773 0.00467118 0.00536214 0.000766189 0.000591819 0.000592911
internal_weight=107959 1277 349 72 928 106682 2887 629 96 57 533 383 150 196 130 76 54 98 55 277 265 2258 221 2037 203 47 43 175 103795 103719
internal_count=107959 1277 349 72 928 106682 2887 629 96 57 533 383 150 196 130 76 54 98 55 277 265 2258 221 2037 203 47 43 175 103795 103719
is_linear=0
shrinkage=1


Tree=1
num_leaves=31
num_cat=0
split_feature=5 9 5 3 5 0 3 7 1 7 9 3 9 5 6 0 9 8 1 8 7 8 1 1 0 6 8 6 9 9
split_gain=0.253026 0.16857 0.21951 0.245337 0.218918 0.147934 0.262302 0.134191 0.126704 0.123724 0.118736 0.117755 0.194547 0.370359 0.10942 0.108181 0.0936186 0.0924871 0.27786 0.123204 0.080587 0.0810878 0.0745544 0.0724158 0.104779 0.0987861 0.085541 0.0761281 0.077936 0.0741223
threshold=0.030735012391754444 0.10771428571428569 0.047430275854902955 0.089039856291140432 0.035025806258148662 0.0017921594595987635 0.064378114928779998 0.15729773816018458 -0.095515888923871625 0.071922459580613954 5.7735714285714357 -0.030541974982122907 0.0079428571428571213 0.035025806258148662 -0.02870819030306759 0.034879965954890298 24.237857142857155 -0.49294968436151759 0.013865319932509725 0.99886291172219022 0.023185340366319033 0.022048572885690648 -0.061988681334646682 -0.0029064317541701574 0.024643722924259984 -0.048139432629880845 0.50177785113120554 -0.03897884614859936 0.0062785714285714224 0.0062785714285714224
decision_type=2 2 2 2 2 2 2 2 2 2 2 2 2 2 2 2 2 2 2 2 2 2 2 2 2 2 2 2 2 2
left_child=-1 2 9 -4 7 6 17 16 -7 20 -9 12 13 -11 15 -5 -3 18 -6 -19 21 -2 -15 -13 25 -25 -26 -27 -29 -28
right_child=1 4 3 14 5 8 -8 10 -10 11 -12 23 -14 22 -16 -17 -18 19 -20 -21 -22 -23 -24 24 26 27 29 28 -30 -31
leaf_value=-1.6194449623971665e-05 0.00028437699399041025 0.0017911164949297232 -3.535949909635013e-05 -0.0014287632759078406 0.0013588483415623296 -0.002779554145222175 0.00822976039518835 -0.0037392295245081185 0.0013070028288169927 0.0098151008714921772 0.0001906247126769174 5.739597344868369e-05 0.00066333226749743781 0.0039715595750907514 0.00050050817438974406 -0.0047204903183648223 -0.001630571999380158 0.00046567991508213299 0.0079712275192529592 0.0048131547262892128 -0.00049572903110134858 0.0032382665677384162 0.0001878300722455606 0.00099345738611855889 0.00088412217149967686 0.005500085956882686 0.00086148871561965434 0.0043319285272154957 0.0009347934422224241 -0.0018793864926870763
leaf_weight=104505 103 77 912 48 47 21 20 40 196 20 37 354 106 23 26 52 27 88 24 20 349 30 30 453 143 20 37 25 52 74
leaf_count=104505 103 77 912 48 47 21 20 40 196 20 37 354 106 23 26 52 27 88 24 20 349 30 30 453 143 20 37 25 52 74
internal_value=-2.27839e-06 0.000418769 0.000259096 -0.00032108 0.0011829 0.00181446 0.00279906 -0.000268649 0.00091153 0.00059017 -0.00185086 0.000837763 0.00203126 0.00401757 -0.00238915 -0.00314046 0.000902794 0.00219228 0.00359402 0.00127077 -9.66195e-05 0.000950668 0.00182983 0.000653276 0.000915641 0.00130354 7.57085e-05 0.00275164 0.00203776 -0.000965761
internal_weight=107959 3454 2857 1038 597 416 199 181 217 1819 77 1337 179 73 126 100 104 179 71 108 482 133 53 1158 804 550 254 97 77 111
internal_count=107959 3454 2857 1038 597 416 199 181 217 1819 77 1337 179 73 126 100 104 179 71 108 482 133 53 1158 804 550 254 97 77 111
is_linear=0
shrinkage=0.05


Tree=2
num_leaves=31
num_cat=0
split_feature=4 3 8 6 0 6 7 6 4 7 4 6 1 0 0 8 2 7 8 3 6 3 6 8 8 8 4 7 3 1
split_gain=0.306003 0.260747 0.17874 0.238095 0.0922603 0.172397 0.0896943 0.295731 0.179497 0.166352 0.162175 0.16949 0.183377 0.154692 0.106222 0.112374 0.15795 0.120365 0.175579 0.181572 0.0896173 0.0821253 0.096407 0.0646532 0.0612109 0.0582076 0.0574463 0.114746 0.0521402 0.127092
threshold=-0.082406716070395 0.027770894764694635 0.056001711744125028 -0.18856811651634156 0.019733346668854405 -0.24061591555815906 0.38520282591039928 -0.24061591555815906 0.06083892910536904 0.13924310603983706 -0.024343296644108111 -0.1729276541549907 0.017233635726916833 0.016785146464813109 -0.024940030943870758 2.1618322428464634 0.24034639762535262 0.62929212311110927 -0.22658211962356084 0.089039856291140432 -0.024319269856284517 0.040618923988574925 -0.054618487741443615 1.0320256520660618 2.0779849838161448 -0.52549928501180143 -0.12593314166347444 0.10916419647443178 -0.032455387644573501 -0.07282847287317705
decision_type=2 2 2 2 2 2 2 2 2 2 2 2 2 2 2 2 2 2 2 2 2 2 2 2 2 2 2 2 2 2
left_child=1 2 26 4 24 -6 9 8 -8 28 11 12 25 -10 -9 16 23 21 -19 -20 -17 -18 -23 -16 -4 -11 27 -1 -2 -30
right_child=6 -3 3 -5 5 -7 7 14 13 10 -12 -13 -14 -15 15 20 17 18 19 -21 -22 22 -24 -25 -26 -27 -28 -29 29 -31
leaf_value=-0.0012584053555600144 -0.0002790804146095655 0.0049621092718249811 0.0015011213663175503 0.00028502256003082413 0.0014049103276034735 0.0075959872570820156 -0.00051434059173632895 0.0015973596386611461 -0.0029556846233537875 0.0039905343548921144 0.00025035232260699913 0.0003710567768610504 0.0077457935606071258 -0.0083285635163996459 -0.00064988683261617557 -0.0033662517128574946 0.0025064195994712901 -0.0015704516042023898 0.0072078109563638764 0.001593280429046394 0.0001843014231848496 -0.0032388828021534472 0.00043895618183174818 -0.0036025134997908028 0.0034268103633722708 0.00062232781041028174 0.00043057900673691463 0.0012017492241392942 0.0035498059422243385 -1.5641723907983184e-05
leaf_weight=162 1901 36 175 278 23 22 39 75 37 23 3616 84 20 21 254 52 23 20 24 36 27 28 49 20 54 29 460 67 25 100279
leaf_count=162 1901 36 175 278 23 22 39 75 37 23 3616 84 20 21 254 52 23 20 24 36 27 28 49 20 54 29 460 67 25 100279
internal_value=-2.16448e-06 0.000767238 0.000645549 0.00131595 0.00236193 0.00443166 -1.13743e-05 -0.00057348 -0.00313731 -7.635e-06 0.000318449 0.00189689 0.00367702 -0.00490104 -0.000164448 -0.000412357 -0.000109509 0.00104114 0.00248671 0.00383909 -0.00215277 -0.000115322 -0.00089844 -0.000865407 0.00195521 0.00211211 0.00010845 -0.000538622 -1.96695e-05 -1.47531e-05
internal_weight=107959 1277 1241 552 274 45 106682 705 97 105977 3772 156 72 58 608 533 454 180 80 60 79 100 77 274 229 52 689 229 102205 100304
internal_count=107959 1277 1241 552 274 45 106682 705 97 105977 3772 156 72 58 608 533 454 180 80 60 79 100 77 274 229 52 689 229 102205 100304
is_linear=0
shrinkage=0.05


Tree=3
num_leaves=31
num_cat=0
split_feature=2 7 0 1 6 7 3 6 7 5 3 9 9 6 0 2 6 9 9 9 1 9 9 5 9 5 9 9 2 1
split_gain=0.242039 0.197651 0.370924 0.371061 0.157034 0.121826 0.0779914 0.122942 0.129597 0.103715 0.0939862 0.199862 0.308137 0.158393 0.134877 0.131142 0.0980783 0.0857862 0.210702 0.18832 0.0778277 0.0670511 0.0573255 0.0570699 0.0542138 0.148925 0.128748 0.0707866 0.059522 0.0582361
threshold=-0.091436274319820085 0.073204498215360916 -0.027755546861803589 0.0030520590265104013 -0.21206859574160877 0.075875205931655323 0.020077676125403347 -0.30882134493045332 0.62929212311110927 0.032354085254017305 0.089039856291140432 0.070792857142857171 0.39146428571428676 -0.066088881001562114 0.0086580086580086996 0.24034639762535262 -0.30882134493045332 0.52000000000000013 8.8185714285714294 0.33064285714285591 0.0015760917204397098 0.2418571428571423 0.0033500000000000062 0.029233592292682537 0.10771428571428569 0.04141268979674758 0.051857142857142817 0.004149999999999994 -0.072241078422837376 -0.061988681334646682
decision_type=2 2 2 2 2 2 2 2 2 2 2 2 2 2 2 2 2 2 2 2 2 2 2 2 2 2 2 2 2 2
left_child=1 -1 3 4 -3 -4 7 8 -2 23 16 13 21 15 -15 -12 -8 19 -19 24 -20 -13 -7 -9 26 -26 27 28 -11 -28
right_child=6 2 5 -5 -6 22 10 9 -10 17 11 12 -14 14 -16 -17 -18 18 20 -21 -22 -23 -24 -25 25 -27 29 -29 -30 -31
leaf_value=0.00024585778206832556 -0.000750494119495852 0.0041178735214583741 0.0044273915956312398 0.010207986370660366 -0.00051112251606321444 0.0024357209673949651 0.0033198063457384706 -2.3977844132704655e-05 -0.0045138849993236361 0.0021246011272663826 -0.00089460557727038701 0.0024480421375483279 -0.001155579399290638 0.0024543542848815296 -0.00099223923616815492 -0.0048358964866644753 0.00018218987859316927 0.0061520458326082342 0.0017832901343057047 -0.0041761314962059258 -0.0015599231107410528 0.0064065212748296886 0.00030789239144092003 -0.00055741302120088858 -0.00059661572692372531 0.0051689831384768093 -0.0037650186851944617 0.00072537230326752747 -0.00037338866918743306 -0.00075221236812759128
leaf_weight=1203 125 57 21 20 27 35 25 97187 28 26 39 20 52 33 203 46 6661 22 49 23 27 23 331 504 24 21 23 763 288 53
leaf_count=1203 125 57 21 20 27 35 25 97187 28 26 39 20 52 33 203 46 6661 22 49 23 27 23 331 504 24 21 23 763 288 53
internal_value=-2.05625e-06 0.000590899 0.00143629 0.00408729 0.00262998 0.00072387 -1.15087e-05 -2.29721e-05 -0.00143922 -2.07836e-05 0.000148551 -0.000580652 0.0014339 -0.00117686 -0.0005103 -0.00302754 0.000193922 0.000419626 0.00184294 0.000305388 0.00059557 0.00456537 0.000511373 -2.67299e-05 0.000391427 0.002094 0.000324978 0.000465332 -0.000166549 -0.00166398
internal_weight=107959 1694 491 104 84 387 106265 99163 153 99010 7102 416 95 321 236 85 6686 1319 98 1221 76 43 366 97691 1198 45 1153 1077 314 76
internal_count=107959 1694 491 104 84 387 106265 99163 153 99010 7102 416 95 321 236 85 6686 1319 98 1221 76 43 366 97691 1198 45 1153 1077 314 76
is_linear=0
shrinkage=0.05


Tree=4
num_leaves=31
num_cat=0
split_feature=2 7 0 1 6 7 3 6 7 5 3 8 0 6 0 6 5 5 8 7 5 2 6 7 2 5 5 0 8 6
split_gain=0.21844 0.17838 0.334759 0.334883 0.141723 0.109948 0.0703872 0.110955 0.116961 0.0936032 0.0848226 0.249157 0.109223 0.150386 0.0943082 0.0885156 0.0831097 0.0592843 0.0567843 0.0533658 0.0811375 0.0812125 0.147893 0.0825323 0.0908309 0.0640988 0.102566 0.120188 0.0623916 0.062244
threshold=-0.091436274319820085 0.073204498215360916 -0.027755546861803589 0.0030520590265104013 -0.21206859574160877 0.075875205931655323 0.020077676125403347 -0.30882134493045332 0.62929212311110927 0.032354085254017305 0.089039856291140432 -0.21907407022276754 -0.0033568399639368192 -0.054618487741443615 -0.020105667431588699 -0.30882134493045332 0.074392634865754148 0.04141268979674758 0.23791614765941105 0.16921542012565641 0.047430275854902955 0.24034639762535262 -0.03897884614859936 0.38520282591039928 -0.015431142561913689 0.014940846952838484 0.012278404375551877 0.016785146464813109 0.60892897686887515 -0.033617859200870563
decision_type=2 2 2 2 2 2 2 2 2 2 2 2 2 2 2 2 2 2 2 2 2 2 2 2 2 2 2 2 2 2
left_child=1 -1 3 4 -3 -4 7 8 -2 -9 15 -12 14 18 -13 -8 17 -15 -14 -17 21 23 -23 24 -21 26 -26 -28 -27 -30
right_child=6 2 5 -5 -6 -7 10 9 -10 -11 11 12 13 16 -16 19 -18 -19 -20 20 -22 22 -24 -25 25 28 27 -29 29 -31
leaf_value=0.00023356489319604413 -0.00071296941654291012 0.0039119798563453448 0.0042060219250353321 0.0096975871414178988 -0.00048556639748211541 0.00048580461995295426 0.0031538160257041457 -2.5393417620892392e-05 -0.0042881907265317366 0.00039864507431886442 0.0041875876553464112 -0.00059802755899727349 -0.00065241588110273542 -0.00029978455319640556 0.0040084175392985349 0.00010139638647767282 0.002333665004445483 -0.0020697175367012511 -0.0035549052448509938 0.0037202202041795398 -0.00038179592493330956 0.0049983301954665063 0.00013789438800064521 -0.00172996353213444 -0.00076375196739617327 0.00074205411842683498 0.0048108763918409958 0.00039783161504332114 -0.00097669434449366792 0.00040801416858745075
leaf_weight=1203 125 57 21 20 27 366 25 97691 28 1319 26 25 22 161 20 5301 23 67 72 23 240 29 34 39 27 559 36 27 130 216
leaf_count=1203 125 57 21 20 27 366 25 97691 28 1319 26 25 22 161 20 5301 23 67 72 23 240 29 34 39 27 559 36 27 130 216
internal_value=-1.95344e-06 0.000561354 0.00136447 0.00388293 0.00249848 0.000687677 -1.09333e-05 -2.18235e-05 -0.00136726 -1.97444e-05 0.000141124 -0.000551619 -0.000867566 -0.00116976 0.00144928 0.000184226 -0.000530925 -0.000819896 -0.0028756 0.00017308 0.00045249 0.000631265 0.00237524 0.00052732 0.000613797 0.000541991 0.00181457 0.00291957 0.000415435 -0.000112252
internal_weight=107959 1694 491 104 84 387 106265 99163 153 99010 7102 416 390 345 45 6686 251 228 94 6661 1360 1120 63 1057 1018 995 90 63 905 346
internal_count=107959 1694 491 104 84 387 106265 99163 153 99010 7102 416 390 345 45 6686 251 228 94 6661 1360 1120 63 1057 1018 995 90 63 905 346
is_linear=0
shrinkage=0.05


Tree=5
num_leaves=31
num_cat=0
split_feature=4 9 5 8 7 5 0 7 5 7 6 9 4 9 9 9 5 4 9 7 9 7 8 4 0 8 8 8 5 9
split_gain=0.254226 0.308022 0.346282 0.2663 0.177809 0.145826 0.128286 0.0977091 0.0862283 0.205959 0.248115 0.237731 0.147577 0.2309 0.104052 0.184926 0.172403 0.22171 0.221324 0.208201 0.156713 0.142751 0.12975 0.0901675 0.0864903 0.0999058 0.0878856 0.0846552 0.0809555 0.159909
threshold=-0.09588328024472613 0.056246428571428531 0.074392634865754148 -0.091610153233139049 0.38520282591039928 0.074392634865754148 0.019733346668854405 0.20124214868517046 0.032354085254017305 0.38520282591039928 -0.24061591555815906 0.004149999999999994 0.089589122243289757 0.02585714285714286 0.011711428571428548 0.020367857142857135 0.038155576249645391 -0.041631934785260498 0.0065214285714285712 0.10550605169860307 0.008471428571428569 0.30538131317203226 -0.53123327223520489 -0.011661726289552919 -0.024940030943870758 2.1618322428464634 -0.2840430274501074 0.26924055981227762 0.038155576249645391 2.2275000000000005
decision_type=2 2 2 2 2 2 2 2 2 2 2 2 2 2 2 2 2 2 2 2 2 2 2 2 2 2 2 2 2 2
left_child=1 3 -3 5 7 -1 -5 -4 -2 11 12 -10 23 -14 16 21 17 -13 19 -19 -20 -16 -21 -11 -12 26 -26 -22 29 -17
right_child=8 2 4 6 -6 -7 -8 -9 9 10 24 14 13 -15 15 28 -18 18 20 22 27 -23 -24 -25 25 -27 -28 -29 -30 -31
leaf_value=-0.00039204877207913704 -1.2954433569987441e-05 0.0010856253129753806 0.0053574068836219936 0.00098265531666952093 0.0080043655718327507 -0.0041089651014270456 0.0042906319763102206 0.00064014068477609692 -0.00050119793568015 -0.0028355612774335205 0.0015735605822714126 0.0064496408716438278 -0.001506390330226471 -0.0079440636040929418 -0.00029502738333401195 -0.00083245698229614479 0.00063176558529784161 0.00071055985213856082 -0.00097678255988284954 0.002553530893194312 0.001101367351396057 -0.0044366946605884517 0.0075522125859553112 0.0018554049660451711 -0.0008366800508305401 -0.0021256844163872303 0.00064633115964997248 0.0051024324951868044 0.0013765415495233552 0.0018067075467153798
leaf_weight=293 104671 164 23 262 32 29 33 21 426 21 69 29 30 26 218 145 358 35 76 21 39 23 34 20 183 66 220 20 395 95
leaf_count=293 104671 164 23 262 32 29 33 21 426 21 69 29 30 26 218 145 358 35 76 21 39 23 34 20 183 66 220 20 395 95
internal_value=8.98757e-07 0.000858649 0.00237852 0.000267449 0.00516846 -0.000726802 0.0013527 0.00310598 -5.95716e-06 0.000281376 -0.000498921 0.000540252 -0.00282656 -0.00449531 0.000838409 0.000488933 0.00133864 0.00233494 0.0018046 0.00372521 0.000524196 -0.00069029 0.00564363 -0.000547285 -7.92548e-05 -0.00032242 -2.70958e-05 0.00245766 0.00093648 0.000212212
internal_weight=108077 857 240 617 76 322 295 44 107220 2549 635 1914 97 56 1488 876 612 254 225 90 135 241 55 41 538 469 403 59 635 240
internal_count=108077 857 240 617 76 322 295 44 107220 2549 635 1914 97 56 1488 876 612 254 225 90 135 241 55 41 538 469 403 59 635 240
is_linear=0
shrinkage=0.05


Tree=6
num_leaves=31
num_cat=0
split_feature=4 9 5 5 7 7 5 7 6 9 4 9 2 9 9 5 4 9 7 2 2 1 9 2 4 7 2 9 6 6
split_gain=0.229439 0.27799 0.31252 0.218497 0.160473 0.0881825 0.077821 0.185878 0.223924 0.214552 0.133189 0.210879 0.145182 0.093907 0.166896 0.155593 0.200093 0.200165 0.160732 0.172768 0.130546 0.109673 0.109133 0.150326 0.0963635 0.0895314 0.164002 0.116833 0.111833 0.0789447
threshold=-0.09588328024472613 0.056246428571428531 0.074392634865754148 0.074392634865754148 0.38520282591039928 0.20124214868517046 0.032354085254017305 0.38520282591039928 -0.24061591555815906 0.004149999999999994 0.089589122243289757 0.048682142857142854 0.032403434488027301 0.011711428571428548 0.020367857142857135 0.038155576249645391 -0.041631934785260498 0.0062785714285714224 0.10550605169860307 0.092621205367247064 0.16844667167899299 -0.061988681334646682 0.008471428571428569 0.034137809596617504 0.071818657060558358 0.2572326371529487 -0.0018894478375599542 0.033714285714285766 -0.12357672268802815 -0.21206859574160877
decision_type=2 2 2 2 2 2 2 2 2 2 2 2 2 2 2 2 2 2 2 2 2 2 2 2 2 2 2 2 2 2
left_child=1 3 -3 -1 5 -4 -2 9 10 -8 12 -12 -9 15 20 16 -11 18 -18 -20 -15 -16 24 -24 -19 29 -27 -28 -29 -23
right_child=6 2 4 -5 -6 -7 7 8 -10 13 11 -13 -14 14 21 -17 17 22 19 -21 -22 25 23 -25 -26 26 27 28 -30 -31
leaf_value=0.00047414027476360137 -1.230671927979252e-05 0.0010313440506451582 0.0050895365805405639 -0.0037689559207137791 0.0076041473032091751 0.00060813363414213416 -0.00047613804473800196 -0.0034235417765254776 -7.5292070834695365e-05 0.0061271587366655729 -0.0018938769054199969 -0.0082316572511834767 0.0025288812629878522 -0.0002598743313834954 -0.00068675102740328048 0.00060017729431632047 0.00082453460877331965 0.00046508172900692969 0.0082190716537836658 0.0020877497017499991 -0.0040763639304786927 0.0020891388707896959 0.0050823778810876394 1.6489911422468141e-05 -0.0033967048328902038 0.0060725065596077751 -0.00093267936382390975 -1.6966197290457784e-05 0.0035938741050015851 0.00037013437150170434
leaf_weight=585 104671 164 23 32 32 21 426 21 538 29 35 21 20 216 94 358 28 70 27 20 25 86 27 32 21 23 36 32 65 299
leaf_count=585 104671 164 23 32 32 21 426 21 538 29 35 21 20 216 94 358 28 70 27 20 25 86 27 32 21 23 36 32 65 299
internal_value=8.53812e-07 0.000815716 0.0022596 0.000254077 0.00491004 0.00295069 -5.65931e-06 0.000267307 -0.000473975 0.000513239 -0.00268523 -0.00427054 -0.000519921 0.000796488 0.000464486 0.00127171 0.00221819 0.00171437 0.00382343 0.00561 -0.000655776 0.000889656 0.000659845 0.00233478 -0.0004261 0.00116356 0.00217404 0.00149987 0.00240267 0.00075412
internal_weight=108077 857 240 617 76 44 107220 2549 635 1914 97 56 41 1488 876 612 254 225 75 47 241 635 150 59 91 541 156 133 97 385
internal_count=108077 857 240 617 76 44 107220 2549 635 1914 97 56 41 1488 876 612 254 225 75 47 241 635 150 59 91 541 156 133 97 385
is_linear=0
shrinkage=0.05


Tree=7
num_leaves=31
num_cat=0
split_feature=2 7 8 5 5 9 8 9 8 9 8 9 8 9 7 7 3 9 9 9 9 9 5 3 2 7 6 1 1 6
split_gain=0.172702 0.160673 0.100483 0.207147 0.282048 0.064115 0.0620487 0.123649 0.174053 0.10425 0.133854 0.10232 0.0613912 0.0655264 0.0611 0.0895314 0.114485 0.181248 0.117817 0.291178 0.121115 0.0985649 0.0968635 0.0861752 0.126926 0.0962702 0.0721492 0.0829049 0.0677635 0.0673795
threshold=-0.091436274319820085 0.10238707985203034 0.12829980202959038 0.030735012391754444 0.035025806258148662 0.00099142857142857387 -0.49796781168022053 0.0099214285714285828 -0.16392238289199931 0.022700000000000064 -0.72683725825561285 0.040500000000000036 1.1435061824562955 0.29396428571428618 0.13924310603983706 0.38520282591039928 -0.01299046762334982 0.36240714285714298 0.10771428571428569 0.29396428571428618 0.2418571428571423 0.0073500000000000015 0.0099736566409235963 0.089039856291140432 0.24034639762535262 0.62929212311110927 -0.30882134493045332 -0.018330289808537455 0.031363211291554623 -0.088086289219173816
decision_type=2 2 2 2 2 2 2 2 2 2 2 2 2 2 2 2 2 2 2 2 2 2 2 2 2 2 2 2 2 2
left_child=1 2 -1 5 -5 -4 9 8 -8 -3 -11 -9 13 -13 26 21 17 -17 23 20 -20 22 -16 24 -18 -26 27 -2 -21 -25
right_child=14 6 3 4 -6 -7 7 11 -10 10 -12 12 -14 -15 15 16 18 -19 19 28 -22 -23 -24 29 25 -27 -28 -29 -30 -31
leaf_value=-7.3117963000014609e-05 -0.0036089283875965824 0.00062753166430644727 0.0031504109466186495 0.0083192457299446684 0.001402056564594594 0.00025004680490125906 -0.00037152207195980568 -0.0011589735366214881 0.0054514073685630032 0.0010849609367803417 0.0062196556837686027 0.0018895861618259985 0.0038214016007259489 -0.00047919232342534979 0.00339371228881646 -0.00087673440961729711 -0.00069393055127875414 -0.0060865701362490662 0.0018944547335007066 0.0011788847142547047 0.0066434005931951109 0.00047455489218609093 -0.00011155713757211855 -0.0029975818480028117 0.00025952367577701806 0.0037222438300138008 -1.4014948623194486e-05 2.2795155757304394e-05 -0.0012649041852234183 -0.00075620986914207947
leaf_weight=859 30 39 20 20 56 403 21 64 33 22 30 65 20 53 20 101 176 20 29 46 25 2307 1353 47 49 34 101911 33 74 117
leaf_count=859 30 39 20 20 56 403 21 64 33 22 30 65 20 53 20 101 176 20 29 46 25 2307 1353 47 49 34 101911 33 74 117
internal_value=8.11132e-07 0.000500044 0.00025469 0.000818992 0.00322237 0.00038718 0.00146025 0.00106162 0.00318693 0.00258168 0.00404728 0.000493464 0.00125981 0.000825643 -7.1909e-06 0.00017528 -0.00033545 -0.00173786 -5.12089e-05 0.00104397 0.00409304 0.000274928 -6.04971e-05 -0.000501706 6.61821e-05 0.00167799 -1.50606e-05 -0.0017066 -0.000328118 -0.00139855
internal_weight=108077 1705 1358 499 76 423 347 256 54 91 52 202 138 118 106372 4398 718 121 597 174 54 3680 1373 423 259 83 101974 63 120 164
internal_count=108077 1705 1358 499 76 423 347 256 54 91 52 202 138 118 106372 4398 718 121 597 174 54 3680 1373 423 259 83 101974 63 120 164
is_linear=0
shrinkage=0.05


Tree=8
num_leaves=31
num_cat=0
split_feature=4 9 5 8 7 1 5 7 5 9 9 8 5 9 0 7 9 9 8 2 8 9 9 0 9 7 9 5 7 2
split_gain=0.193698 0.240959 0.276738 0.223569 0.143524 0.139923 0.115024 0.0809846 0.0689063 0.39194 0.148615 0.18659 0.140719 0.146876 0.119938 0.118545 0.196491 0.108209 0.0918204 0.0930365 0.0882886 0.0788266 0.130633 0.122861 0.166802 0.0736697 0.105438 0.147831 0.156051 0.155547
threshold=-0.09588328024472613 0.056246428571428531 0.074392634865754148 -0.091610153233139049 0.38520282591039928 -0.017012730026360497 0.074392634865754148 0.20124214868517046 0.074392634865754148 0.36240714285714298 0.10771428571428569 -0.29791589941390523 0.032354085254017305 0.004149999999999994 0.043103141099724358 0.38520282591039928 0.10771428571428569 0.023950000000000006 -0.59196834547829014 0.24034639762535262 -0.25586371297047139 0.0060346428571428504 0.022700000000000064 0.060163966415116905 0.036214285714285747 0.02341685590519638 0.0062785714285714224 0.038155576249645391 0.10550605169860307 0.092621205367247064
decision_type=2 2 2 2 2 2 2 2 2 2 2 2 2 2 2 2 2 2 2 2 2 2 2 2 2 2 2 2 2 2
left_child=1 3 -3 6 7 -5 -1 -4 12 10 14 -12 -2 -14 -10 25 21 -16 -18 -20 -11 -17 -23 24 -24 -15 27 28 -27 -30
right_child=8 2 4 5 -6 -7 -8 -9 9 20 11 -13 13 15 17 16 18 -19 19 -21 -22 22 23 -25 -26 26 -28 -29 29 -31
leaf_value=-0.00038710424915601145 -1.1381650820787143e-05 0.00093795251430980528 0.0047845646713698363 0.00090430943948029054 0.0071357177948812023 0.0049657224773672288 -0.0036882113424483048 0.00048995243989685114 -1.5811850595597983e-05 -0.0030380476000053543 -0.00038313838524808147 0.0055768711278991155 -0.0003874822960517553 0.0032169419243150664 -5.3933470155156797e-05 0.0012834726811187076 0.0047915875504259027 -0.0047667210680785886 -0.00042831839818973099 0.0034417548672839382 -0.0076798811927437788 -0.0025402195079258713 0.0023994832634343767 0.0031586043402532359 -0.0022554741772725733 0.00088389345247004013 0.00058031629051255237 0.00060307224185260789 0.0078064149004165783 0.0019886962611053607
leaf_weight=293 104671 164 23 272 32 23 29 21 178 21 29 24 477 31 21 35 20 29 44 24 20 106 27 23 67 34 1190 102 27 20
leaf_count=293 104671 164 23 272 32 23 29 21 178 21 29 24 477 31 21 35 20 29 44 24 20 106 27 23 67 34 1190 102 27 20
internal_value=7.70566e-07 0.000749481 0.00209375 0.000226587 0.00458785 0.00122096 -0.000684409 0.00273486 -5.21381e-06 -0.000735543 -6.92104e-05 0.00231573 -3.0139e-06 0.000390278 -0.000623605 0.000602273 -0.000226696 -0.00278735 0.0018135 0.00093759 -0.00530236 -0.000922576 -0.00126882 -0.000116947 -0.000918412 0.000806563 0.000752141 0.00186947 0.00346419 0.00533079
internal_weight=108077 857 240 617 76 295 322 44 107220 322 281 53 106898 2227 228 1750 346 50 88 68 41 258 223 117 94 1404 1373 183 81 47
internal_count=108077 857 240 617 76 295 322 44 107220 322 281 53 106898 2227 228 1750 346 50 88 68 41 258 223 117 94 1404 1373 183 81 47
is_linear=0
shrinkage=0.05


Tree=9
num_leaves=31
num_cat=0
split_feature=4 8 8 3 5 7 7 7 6 5 4 7 2 8 0 6 0 2 7 8 0 6 2 2 8 8 6 7 7 4
split_gain=0.174813 0.178001 0.220988 0.193857 0.179994 0.096448 0.0988117 0.0624619 0.190046 0.160891 0.121312 0.163296 0.127792 0.110143 0.0936949 0.0760549 0.168471 0.104792 0.0987997 0.122549 0.111392 0.0978707 0.101327 0.0872731 0.0758034 0.0889743 0.0632471 0.0798905 0.0600918 0.137847
threshold=-0.09588328024472613 0.70605037051260455 0.84483610681958743 0.037104610574937864 0.04141268979674758 0.10238707985203034 0.019999311658664535 0.38520282591039928 -0.24061591555815906 0.032354085254017305 0.089589122243289757 0.62929212311110927 0.032403434488027301 3.9719029630540992 -0.024940030943870758 -0.046229814397079176 0.024643722924259984 0.032403434488027301 0.22592073565190376 -0.18030461114982807 0.011384805038475722 -0.086378392121853817 0.023812900232426441 -0.041285709402830488 2.1618322428464634 1.4987349623680211 -0.025909464553284297 0.30538131317203226 0.1217342873906805 -0.016651859960862155
decision_type=2 2 2 2 2 2 2 2 2 2 2 2 2 2 2 2 2 2 2 2 2 2 2 2 2 2 2 2 2 2
left_child=1 3 -3 5 -4 6 -1 9 10 -2 12 -12 -9 15 -10 17 26 18 21 20 23 22 28 -20 25 -16 27 -17 -11 -30
right_child=7 2 4 -5 -6 -7 -8 8 14 13 11 -13 -14 -15 24 16 -18 -19 19 -21 -22 -23 -24 -25 -26 -27 -28 -29 29 -31
leaf_value=0.00069883402272490937 -1.0105825325917438e-05 0.0057548085955204447 0.00066960551146259914 0.0051176086750638209 0.0049942368242357465 0.0011499735006908873 -0.00084678872926257352 -0.0031644580974465328 0.0015364901562961303 0.00017316190067060883 -0.00063094455029138108 -0.0061282551993748977 0.0024201050214469437 0.0040536601406832538 -0.00032242993917377949 0.0031266197766538482 -0.00030623249032942114 -0.00019736772506991564 0.0041191762645030397 -0.00037165651853239643 0.0049014190235772198 -0.0016608175242545946 0.0035110842652751936 3.8638330902597917e-05 -0.0017336961493805746 0.0022002165604039637 0.0048458875872643995 -0.00050029523501341996 0.0025448659022222278 0.00019493616292679526
leaf_weight=165 104575 32 171 20 28 164 277 21 73 590 22 35 20 21 436 49 80 638 20 43 39 53 28 38 86 38 27 22 100 166
leaf_count=165 104575 32 171 20 28 164 277 21 73 590 22 35 20 21 436 49 80 638 20 43 39 53 28 38 86 38 27 22 100 166
internal_value=7.32031e-07 0.000712007 0.00189825 0.000274273 0.0012781 0.000114427 -0.000269803 -4.95313e-06 -0.000465563 -1.79124e-06 -0.0025145 -0.00400649 -0.000440281 0.000452492 -0.00014835 0.000412542 0.00139628 0.00031044 0.000611258 0.00185018 0.00283512 0.000426146 0.000551269 0.00144572 -0.000367981 -0.000120192 0.00278609 0.00200279 0.000454453 0.00107837
internal_weight=108077 857 231 626 199 606 442 107220 731 106489 98 57 41 1914 633 1893 178 1715 1077 140 97 937 884 58 560 474 98 71 856 266
internal_count=108077 857 231 626 199 606 442 107220 731 106489 98 57 41 1914 633 1893 178 1715 1077 140 97 937 884 58 560 474 98 71 856 266
is_linear=0
shrinkage=0.05


Tree=10
num_leaves=31
num_cat=0
split_feature=5 0 9 9 9 9 8 9 8 5 9 8 6 0 0 8 8 9 7 1 6 6 3 8 6 7 9 5 0 8
split_gain=0.137219 0.188747 0.126584 0.229243 0.15406 0.0846137 0.114846 0.0826113 0.1618 0.125953 0.104715 0.101129 0.0835686 0.0778699 0.32073 0.344639 0.0908426 0.0753098 0.0727973 0.0727498 0.0701618 0.068202 0.103198 0.308701 0.123009 0.0961284 0.111266 0.0890869 0.0716383 0.0608676
threshold=0.030735012391754444 -0.027755546861803589 0.73725000000000041 0.33064285714285591 8.8185714285714294 0.41860714285714318 -0.18852476409765284 0.10771428571428569 -0.6299805577173837 0.047430275854902955 0.046067857142857126 1.3516865981388406 -0.068862748794771098 0.017629552106248284 0.021038088029189609 -0.32407052681288712 2.9427299395318878 0.033714285714285766 0.2572326371529487 0.12400818798685288 -0.24061591555815906 -0.11893884558009997 0.018717239302311509 0.75932466497214757 -0.12883302517732995 0.62929212311110927 0.070792857142857171 0.047430275854902955 -0.050633828248297812 -0.82355195704427231
decision_type=2 2 2 2 2 2 2 2 2 2 2 2 2 2 2 2 2 2 2 2 2 2 2 2 2 2 2 2 2 2
left_child=19 21 3 7 18 -5 -7 9 -9 10 13 29 -13 -3 15 -15 17 -16 -4 -1 -10 22 24 -24 25 26 -2 -28 -29 -11
right_child=1 2 4 5 -6 6 -8 8 20 11 -12 12 -14 14 16 -17 -18 -19 -20 -21 -22 -23 23 -25 -26 -27 27 28 -30 -31
leaf_value=-1.1891282257629079e-05 0.000701012546719861 0.00015786519392054483 0.0022048049481652146 -0.0044852747349068524 0.00047081139682198967 0.00091644300706253423 -0.004082528129220009 0.0043680764383735192 0.0025465387286833273 -0.0015107224709765218 -0.0021444829634024894 -0.0044187148757950682 -0.0010719377357886653 0.0014119408523744343 -5.5337600110685797e-05 0.0095586914641206111 0.002887915217262857 0.0026549130657388433 0.0058698882744647567 -0.0012756665306943959 -0.00048372454133035109 9.4588691461632902e-05 0.0076422708064152788 -8.55296733789146e-05 0.0049528638878837232 -0.0017399255193830017 0.00026064042281359433 0.0052146487612238467 0.0016423029642876074 -8.4372582701459022e-05
leaf_weight=104694 297 1053 42 34 168 27 20 33 26 85 42 26 66 34 303 21 34 28 20 114 72 132 24 28 20 31 25 36 23 623
leaf_count=104694 297 1053 42 34 168 27 20 33 26 85 42 26 66 34 303 21 34 28 20 114 72 132 24 28 20 31 25 36 23 623
internal_value=-3.16377e-06 0.000310736 0.000133939 3.1727e-05 0.00125694 -0.00258526 -0.00121078 0.000118389 0.00133991 4.92664e-05 0.000317268 -0.000458263 -0.00201777 0.000387461 0.00096309 0.00452252 0.000426738 0.000173928 0.00338709 -1.32659e-05 0.000320223 0.00110202 0.00137677 0.00348115 0.00112346 0.000937571 0.00115543 0.0027621 0.00382204 -0.000255615
internal_weight=108181 3373 2757 2527 230 81 47 2446 131 2315 1515 800 92 1473 420 55 365 331 62 104808 98 616 484 52 432 412 381 84 59 708
internal_count=108181 3373 2757 2527 230 81 47 2446 131 2315 1515 800 92 1473 420 55 365 331 62 104808 98 616 484 52 432 412 381 84 59 708
is_linear=0
shrinkage=0.05


Tree=11
num_leaves=31
num_cat=0
split_feature=5 0 9 9 9 0 5 9 8 5 9 8 6 1 8 3 7 8 3 8 1 7 8 1 9 1 5 5 7 3
split_gain=0.12384 0.170345 0.114242 0.206892 0.13904 0.0800636 0.137453 0.0745567 0.146024 0.113673 0.094505 0.0912693 0.0754206 0.0742721 0.0705393 0.0668711 0.0666714 0.273614 0.204405 0.0808081 0.114051 0.106653 0.0810365 0.0803955 0.0649777 0.0640949 0.110349 0.132956 0.0678487 0.195419
threshold=0.030735012391754444 -0.027755546861803589 0.73725000000000041 0.33064285714285591 8.8185714285714294 0.060163966415116905 0.058392501977723603 0.10771428571428569 -0.6299805577173837 0.047430275854902955 0.046067857142857126 1.3516865981388406 -0.068862748794771098 0.050098296357813828 3.2825714820794576 0.089039856291140432 0.16921542012565641 -0.66926990626237026 0.005382352389856849 0.78649974676773537 -0.095515888923871625 0.096847984118232602 -0.50276542700243698 -0.018811463810318171 0.038962500000000004 -0.061988681334646682 0.035025806258148662 0.032354085254017305 0.069547237666644959 -0.041399729649795984
decision_type=2 2 2 2 2 2 2 2 2 2 2 2 2 2 2 2 2 2 2 2 2 2 2 2 2 2 2 2 2 2
left_child=15 16 3 7 13 6 -5 9 -9 10 14 -11 -13 -4 24 -1 18 -18 19 21 -21 -2 -23 -19 25 26 27 -3 -27 -30
right_child=1 2 4 5 -6 -7 -8 8 -10 11 -12 12 -14 -15 -16 -17 17 23 -20 20 -22 22 -24 -25 -26 28 -28 -29 29 -31
leaf_value=-1.1239190787612731e-05 7.125643853119459e-05 0.00049114086961543017 0.0044119360862255449 -0.004606662803638281 0.00044727080391697075 -0.0052013275318313389 0.0002906356546430432 0.0041496725664756295 0.00030421173370476549 -0.00024283438831556502 -0.0020372588636573276 -0.0041977791285787063 -0.0010183408459521492 0.00070991393178701403 0.0027279458023727905 -0.0011825233751566334 0.0060589818100977161 0.00095144444935821206 0.006466457066126168 0.0050244995039732503 0.00040015474757334844 0.00049725616859617615 0.003903130353719462 -0.00069458280799557953 0.0027942910342692185 -0.00050182067913744327 0.00024573635583440494 0.0058724226596192849 0.0051349376394812553 0.00025981253943774084
leaf_weight=104686 153 22 42 23 168 20 38 33 98 708 42 26 66 20 31 122 21 153 20 30 24 31 40 144 26 294 83 24 21 972
leaf_count=104686 153 22 42 23 168 20 38 33 98 708 42 26 66 20 31 122 21 153 20 30 24 31 40 144 26 294 83 24 21 972
internal_value=-3.00559e-06 0.000295199 0.000127242 3.01406e-05 0.00119409 -0.002456 -0.00155589 0.00011247 0.00127292 4.68031e-05 0.000301405 -0.000435349 -0.00191688 0.00321774 0.000368088 -1.26026e-05 0.00104692 0.000543364 0.00158426 0.00123303 0.00296924 0.000814475 0.00241606 0.000153371 0.000317356 0.000271875 0.00133441 0.00329877 0.000165374 0.000362912
internal_weight=108181 3373 2757 2527 230 81 61 2446 131 2315 1515 800 92 62 1473 104808 616 318 298 278 54 224 71 297 1442 1416 129 46 1287 993
internal_count=108181 3373 2757 2527 230 81 61 2446 131 2315 1515 800 92 62 1473 104808 616 318 298 278 54 224 71 297 1442 1416 129 46 1287 993
is_linear=0
shrinkage=0.05


Tree=12
num_leaves=31
num_cat=0
split_feature=4 3 1 7 5 2 6 1 4 3 3 0 7 0 7 3 6 7 2 4 6 4 5 4 1 5 3 4 7 6
split_gain=0.150417 0.176045 0.0932427 0.0824911 0.0768679 0.117102 0.108598 0.10269 0.0744618 0.123545 0.0737756 0.0670155 0.0627076 0.0911506 0.0935183 0.0619542 0.0620176 0.159012 0.0595605 0.056796 0.0559218 0.0541624 0.0470926 0.150103 0.222316 0.0813719 0.0793229 0.190845 0.0740678 0.0455913
threshold=-0.07349804112898016 0.046102749425523622 0.12400818798685288 0.13924310603983706 0.074392634865754148 -0.042466219593435321 -0.1729276541549907 -0.095515888923871625 -0.0086133442754366945 -0.037423348477630618 -0.034766724400867303 -0.00020836228861964565 0.069547237666644959 -0.050633828248297812 0.074558896064168337 0.0051242506384755479 -0.24061591555815906 0.2572326371529487 0.10234370172879782 0.12791455801796794 -0.059181006302491172 -0.008389915535656654 0.032354085254017305 0.011205049495078391 0.018121599633955546 0.029233592292682537 0.0095651141070293173 -0.040189668058091592 0.092010778864850776 -0.13474312063820673
decision_type=2 2 2 2 2 2 2 2 2 2 2 2 2 2 2 2 2 2 2 2 2 2 2 2 2 2 2 2 2 2
left_child=1 12 3 22 5 6 8 -6 9 -5 -9 18 -1 -14 -15 16 17 -7 -12 20 -18 -8 25 26 -25 -2 -24 -28 -29 -4
right_child=2 -3 29 4 7 15 21 10 -10 -11 11 -13 13 14 -16 -17 19 -19 -20 -21 -22 -23 23 24 -26 -27 27 28 -30 -31
leaf_value=0.00023172663400869501 -1.6099450144846019e-05 0.0051282059028744699 -0.0020126517771249411 0.0014938802627148108 -0.0033220037668797889 0.0042945991494119746 -0.00041158484976525263 -0.0027661589160561562 0.0011365487009243225 0.0069236509835305209 -0.00048149428683765498 -0.00078996492194987472 0.0030381280630219568 0.003633597849722719 0.00046788660473504886 0.00033470419156061211 -0.00053280785034468512 -0.0014127225432868885 0.0024956143522147267 0.0020564984875144784 0.00026966580102857175 0.0015624399060990462 -0.00014104543995192145 0.005202154289202697 -0.00010650532445075309 -0.0007378800114848878 0.0057602259377017616 0.0022128960720318204 -0.00073579056270159132 -0.00054063788985549035
leaf_weight=1251 101012 20 62 20 32 26 69 25 32 22 28 84 46 25 349 2510 658 23 42 27 324 70 495 38 41 392 20 34 57 347
leaf_count=1251 101012 20 62 20 32 26 69 25 32 22 28 84 46 25 349 2510 658 23 42 27 324 70 495 38 41 392 20 34 57 347
internal_value=-2.8553e-06 0.000465015 -1.02848e-05 -7.37968e-06 0.000215592 0.000267422 0.00140629 -0.000713181 0.00295361 0.00433805 -0.000246799 0.000162188 0.000409202 0.000937824 0.000679498 0.000199435 -0.000121478 0.00161565 0.00130477 -0.000205838 -0.000268041 0.000582528 -1.60986e-05 0.000397081 0.00244703 -1.88897e-05 0.000129844 0.00133786 0.000365917 -0.000763779
internal_weight=108181 1691 106490 106081 3992 3781 213 211 74 42 179 154 1671 420 374 3568 1058 49 70 1009 982 139 102089 685 79 101404 606 111 91 409
internal_count=108181 1691 106490 106081 3992 3781 213 211 74 42 179 154 1671 420 374 3568 1058 49 70 1009 982 139 102089 685 79 101404 606 111 91 409
is_linear=0
shrinkage=0.05


Tree=13
num_leaves=31
num_cat=0
split_feature=4 9 5 8 7 7 9 9 5 6 9 5 9 6 9 6 4 5 7 9 8 9 8 9 9 8 9 8 8 7
split_gain=0.136094 0.157796 0.31484 0.119023 0.105283 0.0933782 0.0743966 0.266883 0.554573 0.0730997 0.0591491 0.0529848 0.255775 0.20561 0.129163 0.123141 0.11509 0.0839845 0.0788499 0.225253 0.088496 0.0880934 0.103936 0.124491 0.0824999 0.0662446 0.0648723 0.115431 0.0646723 0.0888144
threshold=-0.082406716070395 0.070792857142857171 0.074392634865754148 -0.091610153233139049 0.38520282591039928 0.20124214868517046 0.0090285714285713876 0.0070571428571428859 0.029233592292682537 -0.30882134493045332 0.0060346428571428504 0.074392634865754148 0.33064285714285591 -0.11451792543266719 0.2418571428571423 -0.14171825544541014 0.045220036851138741 0.032354085254017305 0.38520282591039928 0.2418571428571423 3.9719029630540992 0.0027396428571428593 0.81443658914244077 0.022700000000000064 0.0040228571428571483 1.8463402706673226 0.0027396428571428593 -0.82355195704427231 2.1618322428464634 0.22592073565190376
decision_type=2 2 2 2 2 2 2 2 2 2 2 2 2 2 2 2 2 2 2 2 2 2 2 2 2 2 2 2 2 2
left_child=1 3 -3 9 5 -4 7 -5 -9 10 -1 17 14 -14 15 16 -13 -2 20 21 24 -20 -23 25 26 -24 27 -19 -26 -30
right_child=11 2 4 6 -6 -7 -8 8 -10 -11 -12 12 13 -15 -16 -17 -18 18 19 -21 -22 22 23 -25 28 -27 -28 -29 29 -31
leaf_value=0.00056312579108634968 -1.3282055922093934e-05 0.00063341111914039293 0.0050390706723555927 0.00061406785179953741 0.0064385098415765578 0.00020745163164974658 -4.9043900063047298e-05 -0.00053675878602503372 0.01096720528927108 2.8353364179899349e-05 -0.0018817986003892206 5.3200123475107836e-05 -0.0071496956134215004 -0.00067059885865698265 0.0033051790194944123 0.0011520531108012288 -0.0027022987838588759 0.0035689717667410151 0.0014600818866812107 0.0022469481245207135 0.0036736633695129842 -0.00044663641370682264 -0.0054216602757029865 -9.081609651299293e-05 0.00067174564758193086 -0.0023134992384802899 -0.00089692375988035698 -4.6269800870466204e-05 0.00085684842618728252 -0.0031281196658878973
leaf_weight=32 104458 261 20 235 33 20 174 22 20 338 109 80 25 24 26 82 72 25 36 70 21 187 30 38 1270 40 188 189 29 27
leaf_count=32 104458 261 20 235 33 20 174 22 20 338 109 80 25 24 26 82 72 25 36 70 21 187 30 38 1270 40 188 189 29 27
internal_value=-2.71254e-06 0.000513067 0.00144527 0.000178274 0.00434796 0.00262326 0.000761214 0.00127019 0.00494132 -0.00037059 -0.00132692 -8.81022e-06 -0.0006626 -0.00397626 -3.81019e-05 -0.000409578 -0.00125204 -6.91523e-06 0.000302418 -0.000329956 0.000447405 -0.000874921 -0.00115987 -0.00239482 0.000408197 -0.00364557 -0.00021926 0.000376072 0.000598421 -0.00106448
internal_weight=108181 1264 334 930 73 40 451 277 42 479 141 106917 309 49 260 234 152 106608 2150 401 1749 331 295 108 1728 70 402 214 1326 56
internal_count=108181 1264 334 930 73 40 451 277 42 479 141 106917 309 49 260 234 152 106608 2150 401 1749 331 295 108 1728 70 402 214 1326 56
is_linear=0
shrinkage=0.05


Tree=14
num_leaves=31
num_cat=0
split_feature=4 3 1 7 5 2 1 8 5 4 8 5 8 5 3 7 0 0 2 4 8 8 3 8 8 4 1 1 3 1
split_gain=0.123983 0.149268 0.0811111 0.0723719 0.0631111 0.103032 0.0854783 0.0780764 0.0766627 0.0761324 0.0630259 0.268943 0.264912 0.12816 0.0571009 0.0543643 0.0910172 0.0676279 0.0561105 0.0607376 0.0561588 0.0533092 0.0496179 0.0484168 0.0480338 0.0678897 0.093906 0.0512517 0.0469613 0.135728
threshold=-0.07349804112898016 0.046102749425523622 0.12400818798685288 0.13924310603983706 0.074392634865754148 -0.042466219593435321 -0.095515888923871625 -0.30408148547003894 0.058392501977723603 0.18379537894349277 0.73243297683505193 0.030735012391754444 0.93457397597341663 0.04141268979674758 0.0051242506384755479 0.10238707985203034 0.030520075287957974 0.012558599891418944 -0.034099549506085951 -0.12593314166347444 -0.85953452572930178 -0.46006573682013419 -0.041399729649795984 0.15524979835801733 -0.75811085419964852 0.10402677765488212 -0.022111697404556426 0.014858668824928591 -0.034766724400867303 -0.061988681334646682
decision_type=2 2 2 2 2 2 2 2 2 2 2 2 2 2 2 2 2 2 2 2 2 2 2 2 2 2 2 2 2 2
left_child=1 10 3 28 5 8 -6 21 -5 -9 15 -12 -13 -14 24 16 17 18 19 20 -1 -8 -19 -4 27 -26 -27 -7 -2 -30
right_child=2 -3 23 4 6 14 7 9 -10 -11 11 12 13 -15 -16 -17 -18 22 -20 -21 -22 -23 -24 -25 25 26 -28 -29 29 -31
leaf_value=-0.0026510041408156129 -0.00030972083097132548 0.0047161266260081908 0.00051699400933306503 0.00079208628940138903 -0.0030195053069746792 0.00027402273150987097 -0.00045638903839942705 -0.00069576480187648955 0.0030301537857221773 0.0022155756932098736 0.00026169045327137597 0.0082856983439775107 -0.00056814988853754291 0.0039155533711035624 0.00031529048027425735 0.00087712873956368614 -0.0028854675979416173 0.0035132150059904565 -0.0025078051410012204 0.00025091859733566182 -0.00035495910136808603 -0.0031182677105621058 0.00074339335646907818 -0.00095287746805473015 -0.00042955113110892398 0.0032642796806370217 -0.00098220960884962388 0.0029142714169574906 0.0023278246236816728 -1.2320014199477019e-05
leaf_weight=33 1332 20 67 163 32 227 62 43 50 47 333 21 30 34 2510 236 26 22 22 715 138 27 61 342 758 30 23 20 62 100695
leaf_count=33 1332 20 67 163 32 227 62 43 50 47 333 21 30 34 2510 236 26 22 22 715 138 27 61 342 758 30 23 20 62 100695
internal_value=-2.57692e-06 0.000422197 -9.32208e-06 -6.61252e-06 0.000202235 0.000249199 -0.000639333 -0.000213828 0.00131745 0.000824602 0.000370803 0.000902457 0.00341275 0.00181382 0.000185428 0.000193444 3.47917e-05 0.000111408 -1.34718e-05 4.84642e-05 -0.000798056 -0.00126393 0.00147756 -0.000712092 -0.000122659 -0.000308585 0.00142146 0.000487808 -1.47791e-05 -1.088e-05
internal_weight=108181 1691 106490 106081 3992 3781 211 179 213 90 1671 418 85 64 3568 1253 1017 991 908 886 171 89 83 409 1058 811 53 247 102089 100757
internal_count=108181 1691 106490 106081 3992 3781 211 179 213 90 1671 418 85 64 3568 1253 1017 991 908 886 171 89 83 409 1058 811 53 247 102089 100757
is_linear=0
shrinkage=0.05


Tree=15
num_leaves=31
num_cat=0
split_feature=7 4 3 9 9 1 4 6 9 7 3 9 0 4 0 6 9 0 4 1 2 9 4 0 9 9 7 6 3 9
split_gain=0.123844 0.235901 0.281475 0.0739097 0.0946331 0.155153 0.306694 0.13624 0.0792548 0.073339 0.157046 0.124646 0.0708403 0.12909 0.0706559 0.0655463 0.0653141 0.0661751 0.233418 0.0647286 0.0576867 0.0622045 0.0527206 0.0521202 0.0510314 0.0497037 0.0485446 0.0465711 0.0449973 0.0443012
threshold=0.13924310603983706 -0.12593314166347444 0.029477260313095836 0.022100000000000005 0.024550000000000006 -0.095515888923871625 0.045220036851138741 -0.053431287734751524 0.012357142857142874 0.62929212311110927 0.0071179919944950329 0.061682142857142887 0.027166532988785356 0.0072239886713219023 -0.0022101982171219832 -0.055233389500344281 30.84285714285712 -0.038061009560025942 0.024757586955532877 0.12400818798685288 0.24034639762535262 0.042128571428571439 0.18379537894349277 -0.031489344111874977 0.014449999999999999 0.29396428571428618 0.30538131317203226 -0.18856811651634156 -0.0024430756016863282 0.0073500000000000015
decision_type=2 2 2 2 2 2 2 2 2 2 2 2 2 2 2 2 2 2 2 2 2 2 2 2 2 2 2 2 2 2
left_child=-1 2 23 8 7 6 -6 -5 12 16 27 -12 29 -14 -13 26 17 18 -7 -16 22 -22 -19 -2 -17 -23 -10 -11 -20 -3
right_child=1 3 -4 4 5 9 -8 -9 15 10 11 14 13 -15 19 24 -18 20 28 -21 21 25 -24 -25 -26 -27 -28 -29 -30 -31
leaf_value=-9.5153272693481686e-06 0.0032697014172164795 0.00012015109866284772 0.0076043770582016031 0.004913234690736447 0.00040636635982455353 0.0063713237135247756 -0.007209179373458028 0.00013745241276410524 -0.00090041351983866959 -0.0040449740865302307 -0.0030135308525391989 0.0037242746869610116 0.0030720179633935917 -0.00061935284741816265 -0.00045696887363303915 -0.0017742194020404266 -0.0009666933230723122 0.00049372639731682028 0.0020879500987939538 0.0023255932857423572 -0.00039808531624398061 0.0043720162831819972 -0.0020901230996241793 0.00077728957847362026 0.00073448256513549261 0.0012803485173767863 -0.0028418334641084984 -0.0013706804017490912 -0.00093530591511807874 0.00072439511784715659
leaf_weight=103362 27 1236 21 28 39 22 20 32 150 27 21 22 25 450 57 26 70 1529 20 33 21 26 20 94 92 26 41 41 32 402
leaf_count=103362 27 1236 21 28 39 22 20 32 150 27 21 22 25 450 57 26 70 1529 20 33 21 26 20 94 92 26 41 41 32 402
internal_value=1.84046e-06 0.000254261 0.00226084 0.000191055 0.000409207 0.000351252 -0.00217517 0.00236615 3.16712e-06 0.000427032 -0.000477935 0.000521408 0.000112544 -0.00042507 0.00118421 -0.000744772 0.000530032 0.000591807 0.00205403 0.000563304 0.000525097 0.00189865 0.000460365 0.00133345 0.000181718 0.00282618 -0.00131716 -0.00243253 0.000227485 0.000268445
internal_weight=108012 4650 142 4508 2086 2026 59 60 2422 1967 201 133 2113 475 112 309 1766 1696 74 90 1622 73 1549 121 118 52 191 68 52 1638
internal_count=108012 4650 142 4508 2086 2026 59 60 2422 1967 201 133 2113 475 112 309 1766 1696 74 90 1622 73 1549 121 118 52 191 68 52 1638
is_linear=0
shrinkage=0.05


Tree=16
num_leaves=31
num_cat=0
split_feature=5 9 4 8 3 9 6 9 9 2 8 5 9 9 7 8 8 4 6 5 9 9 4 4 7 8 8 3 7 7
split_gain=0.121892 0.124728 0.152218 0.330806 0.177991 0.0873886 0.166095 0.143045 0.14337 0.128151 0.105126 0.0850674 0.158735 0.126612 0.093319 0.0808123 0.141353 0.0765628 0.158584 0.0776593 0.0665056 0.25377 0.242258 0.231053 0.1221 0.195477 0.096099 0.126479 0.0860195 0.096594
threshold=0.032354085254017305 0.10771428571428569 -0.12593314166347444 -0.46573113350604317 -0.054474694145080986 0.29396428571428618 -0.24061591555815906 0.52000000000000013 8.8185714285714294 0.03801657249347757 -0.22658211962356084 0.047430275854902955 0.046067857142857126 0.037500000000000047 0.30538131317203226 1.0320256520660618 3.7061663221807399 0.06083892910536904 -0.1605180641918473 0.058392501977723603 0.004149999999999994 0.0062785714285714224 0.12791455801796794 0.0068030863352053226 0.02341685590519638 -0.40353112076743197 -0.36854808033387559 0.034027550042013861 0.11286917864617675 0.13247534336448799
decision_type=2 2 2 2 2 2 2 2 2 2 2 2 2 2 2 2 2 2 2 2 2 2 2 2 2 2 2 2 2 2
left_child=-1 11 3 -3 -4 6 -6 10 -9 -8 -7 12 13 20 -14 -13 17 -17 -19 -20 -2 23 24 -22 25 -23 -25 -28 -26 -30
right_child=1 2 4 -5 5 7 9 8 -10 -11 -12 15 14 -15 -16 16 -18 18 19 -21 21 22 -24 26 28 -27 27 -29 29 -31
leaf_value=-7.1705562277956639e-06 -0.00010167926449633652 0.0086304920200927886 -0.0026340427581139064 0.0011028192715322668 0.0057149804824103527 -0.0029858534936682279 -0.0021250772554512053 0.0030617408089764308 0.0002968521288602647 0.0024833042602646557 0.0014184995647519827 9.6667502955163159e-06 -0.0047833309985104606 0.0029177825594812914 -0.00043172383183056289 0.00094048750121146453 0.0023608417715877297 -0.0063252168064493507 -0.0030527578598660669 -4.4482023610423009e-05 0.00075181302733483963 0.00014271368541253301 -0.0023266881333256608 0.0017437641191380946 -0.00042554240030142677 0.0066286230936557769 0.008805062072351575 0.0037364325486123565 0.0028282881512915574 0.00052799408582486116
leaf_weight=105050 413 20 37 54 26 42 22 68 151 48 20 880 22 53 28 20 23 21 41 45 91 26 80 22 211 21 20 32 52 373
leaf_count=105050 413 20 37 54 26 42 22 68 151 48 20 880 22 53 28 20 23 21 41 45 91 26 80 22 211 21 20 32 52 373
internal_value=1.74844e-06 0.000318069 0.00104862 0.00313733 0.000675275 0.00100006 0.00230246 0.000555115 0.00115536 0.00103496 -0.00156509 0.000173967 0.000421587 0.000520871 -0.00234643 -0.000173183 -0.0012459 -0.00189909 -0.00242985 -0.00147866 0.000426138 0.00066104 0.00027654 0.00243906 0.000581457 0.00304067 0.00451392 0.00568591 0.000399722 0.000809442
internal_weight=108012 2962 488 74 414 377 96 281 219 70 62 2474 1444 1394 50 1030 150 127 107 86 1341 928 763 165 683 47 74 52 636 425
internal_count=108012 2962 488 74 414 377 96 281 219 70 62 2474 1444 1394 50 1030 150 127 107 86 1341 928 763 165 683 47 74 52 636 425
is_linear=0
shrinkage=0.05


Tree=17
num_leaves=31
num_cat=0
split_feature=7 4 3 0 3 4 4 6 8 4 0 1 1 6 6 4 6 6 2 8 8 8 4 3 0 6 8 3 7 1
split_gain=0.106562 0.200331 0.245704 0.0630444 0.06605 0.0658205 0.103468 0.0635332 0.12333 0.0564704 0.0460611 0.0432179 0.0545012 0.049305 0.172087 0.121176 0.0852895 0.0510485 0.0413665 0.102755 0.0617692 0.0358799 0.0763626 0.0452883 0.0452423 0.0447707 0.192025 0.117022 0.0647926 0.0724274
threshold=0.13924310603983706 -0.12593314166347444 0.029477260313095836 0.027166532988785356 0.012686482202118989 -0.015050545598960295 -0.038923997157867866 -0.14171825544541014 0.28487302818743743 0.12791455801796794 -0.031489344111874977 0.050098296357813828 0.055338245429923612 -0.086378392121853817 -0.0491286301052875 0.18379537894349277 -0.10735983397824798 -0.040948566337925422 -0.068069105363461543 -0.46573113350604317 -0.70346407625345642 -0.54765698851257427 -0.12593314166347444 -0.013299241968623752 -0.038061009560025942 -0.1605180641918473 3.7061663221807399 0.018717239302311509 0.024371892386716557 -0.095515888923871625
decision_type=2 2 2 2 2 2 2 2 2 2 2 2 2 2 2 2 2 2 2 2 2 2 2 2 2 2 2 2 2 2
left_child=21 2 10 4 18 6 -5 8 9 -7 -2 -9 -13 16 15 -15 -14 -16 19 20 -3 22 -1 24 -24 26 27 28 29 -23
right_child=1 3 -4 5 -6 7 -8 11 -10 -11 -12 12 13 14 17 -17 -18 -19 -20 -21 -22 25 23 -25 -26 -27 -28 -29 -30 -31
leaf_value=-0.0016019663743268037 0.0030386992005838292 0.00092843346949666745 0.0070773917760345202 -0.00043047073674548804 0.00048015752826219781 0.0002895653240129297 0.0040602112269919853 0.00041942575927420814 -0.0042486571789985264 -0.0024501367481067206 0.00069563481046451612 -0.0021895506321207474 -0.00077520028141367695 -0.001115216532101234 0.0022091352716088297 -0.0054568343556602485 0.0035794054115699096 -0.00012435402489694146 -2.9916233207134288e-05 -0.00014118868978888106 0.0044432360958307979 0.0021111652426257293 0.0023863650867259941 -5.9622725592102155e-05 0.00015638361186947583 7.4706253907668292e-06 0.0047545651197045428 0.0029193202925130324 -0.00019271211368980859 0.00031957149166211602
leaf_weight=79 27 25 21 29 1869 68 23 260 28 26 94 38 23 45 25 25 22 375 1512 90 25 68 23 33870 2050 66261 24 39 617 331
leaf_count=79 27 25 21 29 1869 68 23 260 28 26 94 38 23 45 25 25 22 375 1512 90 25 68 23 33870 2050 66261 24 39 617 331
internal_value=1.66102e-06 0.000235808 0.00208493 0.000177561 0.000276559 -0.000175602 0.00155579 -0.000271893 -0.00133586 -0.000468225 0.00121847 -0.000112232 -0.000362198 -0.000227364 -0.000378745 -0.00266579 0.00135372 2.14891e-05 4.62176e-05 0.000868463 0.00268583 -8.87266e-06 -4.91506e-05 -4.57377e-05 0.000181125 1.26731e-05 0.000332157 0.000231552 0.00012838 0.000624906
internal_weight=108012 4650 142 4508 3521 987 52 935 122 94 121 813 553 515 470 70 45 400 1652 140 50 103362 36022 35943 2073 67340 1079 1055 1016 399
internal_count=108012 4650 142 4508 3521 987 52 935 122 94 121 813 553 515 470 70 45 400 1652 140 50 103362 36022 35943 2073 67340 1079 1055 1016 399
is_linear=0
shrinkage=0.05


Tree=18
num_leaves=31
num_cat=0
split_feature=5 9 4 8 5 1 2 8 9 2 9 9 5 1 9 8 8 8 9 9 4 9 4 3 3 2 5 9 9 3
split_gain=0.102822 0.11031 0.137865 0.35951 0.299816 0.137663 0.132008 0.0954298 0.149367 0.117243 0.0785526 0.147952 0.0775763 0.415467 0.565597 0.0999398 0.0921815 0.123548 0.0755533 0.216714 0.269388 0.123792 0.106953 0.0865916 0.0850902 0.0833669 0.0888234 0.0782662 0.0876618 0.0759159
threshold=0.032354085254017305 0.10771428571428569 -0.023853338371236984 -0.49796781168022053 0.058392501977723603 -0.050429650026660826 -0.035672131441710324 -0.17243958091588193 6.5703571428571452 0.24034639762535262 0.29396428571428618 0.47467857142857062 0.035025806258148662 -0.061988681334646682 0.0073500000000000015 0.58625479819071857 0.96679536622564133 4.2988416039370003 0.022100000000000005 0.024550000000000006 0.011205049495078391 0.011382857142857144 0.18379537894349277 -0.070355304670457572 0.046102749425523622 0.13479022190492221 0.058392501977723603 0.0040228571428571483 0.0051235714285714287 0.020903163321571609
decision_type=2 2 2 2 2 2 2 2 2 2 2 2 2 2 2 2 2 2 2 2 2 2 2 2 2 2 2 2 2 2
left_child=-1 12 3 4 -3 -4 -7 10 9 -9 -8 -12 13 14 -2 -15 18 -18 21 20 -20 27 25 -23 -25 -21 -27 -14 29 -29
right_child=1 2 5 -5 -6 6 7 8 -10 -11 11 -13 16 15 -16 -17 17 -19 19 22 -22 23 -24 24 -26 26 -28 28 -30 -31
leaf_value=-6.6136810325220964e-06 0.010385487715189811 0.001876704090520636 -0.0033796809107551114 0.00034241343591192338 0.0085848542290829846 -0.0029091831801148754 0.0022080838700811213 0.0016531528774066829 0.00018003617501164085 0.0060425524358990899 -0.0037585351290612447 0.00049617218693518751 -0.00028737377173960332 -0.00027080032208829269 -0.00025027199368923901 0.0022944280029171043 -0.0010302954094094233 0.0028576043519106778 -2.5994652374224231e-05 0.00028648070748030137 0.0076338679277493313 -0.0032775389017271148 -0.0025148324241551262 -0.00020364155303601676 -0.0026988593316296253 0.00442157578309653 0.00062780662620854049 0.000993650586128102 0.00032568023909703981 0.0039026857145610405
leaf_weight=105050 25 36 23 111 31 24 34 32 57 29 27 84 426 243 25 45 287 22 22 371 24 35 30 205 41 27 36 70 507 33
leaf_count=105050 25 36 23 111 31 24 34 32 57 29 27 84 426 243 25 45 287 22 22 371 24 35 30 205 41 27 36 70 507 33
internal_value=1.57797e-06 0.000292102 0.000979132 0.0020882 0.00498048 0.000342312 0.00064059 0.000964524 0.00202031 0.00373992 0.00010533 -0.000538757 0.000156585 0.00086043 0.00506761 0.000130017 4.52086e-05 -0.000753487 0.000180292 0.000696988 0.00397046 -1.97956e-05 0.000372463 -0.000950582 -0.000619511 0.000572046 0.00225371 0.000232667 0.000595843 0.00192567
internal_weight=108012 2962 488 178 67 310 287 263 118 61 145 111 2474 338 50 288 2136 309 1827 510 46 1317 464 281 246 434 63 1036 610 103
internal_count=108012 2962 488 178 67 310 287 263 118 61 145 111 2474 338 50 288 2136 309 1827 510 46 1317 464 281 246 434 63 1036 610 103
is_linear=0
shrinkage=0.05


Tree=19
num_leaves=31
num_cat=0
split_feature=5 8 8 3 0 5 0 6 5 4 5 8 6 0 4 6 1 2 3 5 5 4 5 5 0 6 8 1 8 5
split_gain=0.0927969 0.085623 0.074712 0.0920873 0.217474 0.0858571 0.0997008 0.0779692 0.127942 0.124163 0.118751 0.112761 0.0764776 0.0713159 0.0574414 0.0510078 0.0472281 0.0454717 0.0421826 0.0465217 0.040858 0.043257 0.0469631 0.0405334 0.0381875 0.063157 0.0542219 0.107028 0.0370738 0.0537023
threshold=0.032354085254017305 4.2988416039370003 0.96679536622564133 0.064378114928779998 -0.0036063764982282582 0.035025806258148662 0.002049295160972409 -0.0491286301052875 0.058392501977723603 0.016208753290385961 0.047430275854902955 1.6061776953244975 -0.028997878514756489 0.0082420523563138132 -0.030394058714961588 -0.12883302517732995 0.028966823454171568 -0.15599882339203783 0.021749267573759504 0.029233592292682537 0.030735012391754444 0.12791455801796794 0.016883788284696531 0.016554646156961662 0.060163966415116905 -0.24061591555815906 0.78649974676773537 -0.033419254166913652 -0.41512512401703666 0.04141268979674758
decision_type=2 2 2 2 2 2 2 2 2 2 2 2 2 2 2 2 2 2 2 2 2 2 2 2 2 2 2 2 2 2
left_child=18 2 3 24 -5 6 -4 9 10 14 11 -9 -13 15 17 16 -11 -7 19 23 21 -20 -23 -1 26 -26 -2 -28 -6 -30
right_child=1 -3 5 4 28 7 -8 8 -10 13 -12 12 -14 -15 -16 -17 -18 -19 20 -21 -22 22 -24 -25 25 -27 27 -29 29 -31
leaf_value=-1.9053406338262783e-05 0.00025279729641535914 0.0029810186909062083 0.0036708613479277119 0.0052070309246529736 0.0021349881410262445 0.00088552416481044421 -0.00096117539353491287 0.003202553389593959 0.0037278401774212561 -0.0040420080492780969 -0.0038464389368891719 0.0011990595725364984 -0.0030729811945506796 -0.0034276574004539536 0.0025422717854701703 -1.9713571082126906e-05 -0.00089431015613417215 -0.002114899959111505 0.00014432780098237301 -0.0004415952961370304 0.0011068911294430672 0.0013302374976657092 -0.00073676670505569029 0.00011468485025898891 -0.0031178286912935706 0.00017593127396499177 0.0047555358125828213 9.2914208516958757e-05 0.0017615384009061136 -0.00026607962899675996
leaf_weight=93020 2212 29 26 31 36 28 21 25 23 22 20 20 22 57 23 47 26 23 4988 631 105 31 242 6033 22 43 20 32 47 107
leaf_count=93020 2212 29 26 31 36 28 21 25 23 22 20 20 22 57 23 47 26 23 4988 631 105 31 242 6033 22 43 20 32 47 107
internal_value=1.49906e-06 0.000277497 0.000250766 0.000348566 0.00132398 -0.000400382 0.00160123 -0.000680369 0.000411373 -0.00121175 -0.000465395 0.000543872 -0.00103868 -0.00202947 0.000467895 -0.00119056 -0.00233701 -0.000467608 -6.28301e-06 -1.36341e-05 0.000130278 0.000110786 -0.000502052 -1.09078e-05 0.000256009 -0.00093888 0.000290314 0.00188623 0.000690428 0.000352739
internal_weight=108012 2962 2933 2550 221 383 47 336 110 226 87 67 42 152 74 95 48 51 105050 99684 5366 5261 273 99053 2329 65 2264 52 190 154
internal_count=108012 2962 2933 2550 221 383 47 336 110 226 87 67 42 152 74 95 48 51 105050 99684 5366 5261 273 99053 2329 65 2264 52 190 154
is_linear=0
shrinkage=0.05


Tree=20
num_leaves=31
num_cat=0
split_feature=4 3 8 8 6 6 7 0 5 3 4 3 6 5 4 0 2 3 4 6 7 5 2 6 3 4 5 5 2 4
split_gain=0.0952655 0.192845 0.0740441 0.197237 0.0946978 0.0609758 0.0800285 0.0642909 0.0520802 0.0403879 0.11453 0.391306 0.0665919 0.0660342 0.0953726 0.0740388 0.057178 0.0552196 0.0550482 0.0577908 0.0388909 0.0593958 0.144479 0.0623018 0.0377043 0.0375164 0.037456 0.109592 0.110147 0.0847302
threshold=-0.082406716070395 0.026271243911646817 0.70605037051260455 0.84483610681958743 -0.30882134493045332 -0.30882134493045332 0.38520282591039928 0.0088959938413386581 0.04141268979674758 0.018083663898735173 -0.041631934785260498 0.021749267573759504 -0.30882134493045332 0.074392634865754148 0.12791455801796794 -1.0000000180025095e-35 -0.077319858868646882 -0.070355304670457572 -0.03645669026902431 -0.18856811651634156 0.38520282591039928 0.058392501977723603 -0.083651242811800683 -0.24061591555815906 -0.032455387644573501 0.0036294428373979675 0.030735012391754444 0.047430275854902955 0.24034639762535262 0.12791455801796794
decision_type=2 2 2 2 2 2 2 2 2 2 2 2 2 2 2 2 2 2 2 2 2 2 2 2 2 2 2 2 2 2
left_child=1 2 5 -4 -5 6 7 -1 -7 13 11 -11 -12 14 20 -16 -14 -15 -19 -20 21 -2 -23 -24 -6 -25 -18 28 29 -28
right_child=9 -3 3 4 24 8 -8 -9 -10 10 12 -13 16 17 15 -17 26 18 19 -21 -22 22 23 25 -26 -27 27 -29 -30 -31
leaf_value=-0.00067124833261832269 -1.4020327784760202e-05 0.0043267546554664983 0.0043083061672708331 0.0032960379026397801 7.0806449808878823e-05 0.00017678856727073499 0.0012664854500800112 -0.0031674854101083842 0.0016254685885370779 0.0075835789249553767 0.0025635054904139705 -0.00079558317551058479 -0.0019698845167808649 -0.0032564431540473985 0.0004175649873251396 0.0040747153654228895 4.4531661968707488e-05 0.0014108509423539754 -0.0021028184068171188 0.00034622712661915175 -0.0008182705289921917 0.0040936426127639912 -0.0012228508722846923 -0.00039583944371375057 0.00227662898888368 0.0021502871554380711 0.00080195402207859201 -0.00026333466471200429 0.0022980553654741755 -0.0008307829899570848
leaf_weight=133 97675 31 39 28 250 615 43 32 69 22 27 38 34 24 31 25 7232 26 63 39 150 30 46 23 21 39 420 414 101 98
leaf_count=133 97675 31 39 28 250 615 43 32 69 22 27 38 34 24 31 25 7232 26 63 39 150 30 46 23 21 39 420 414 101 98
internal_value=-1.1549e-07 0.000431926 0.000333764 0.000963976 0.000527759 9.49615e-05 -0.000654696 -0.00115537 0.000322927 -5.22829e-06 0.000100094 0.00227678 8.44077e-05 -1.42251e-05 -1.26103e-05 0.00205022 7.63422e-05 -0.00105557 -0.000642911 -0.00116642 -1.37895e-05 -1.25558e-05 0.00102402 0.00017135 0.000241737 0.00120576 8.47598e-05 0.000366396 0.000787573 0.000493058
internal_weight=107818 1261 1230 338 299 892 208 165 684 106557 8386 60 8326 98171 98019 56 8299 152 128 102 97963 97813 138 108 271 62 8265 1033 619 518
internal_count=107818 1261 1230 338 299 892 208 165 684 106557 8386 60 8326 98171 98019 56 8299 152 128 102 97963 97813 138 108 271 62 8265 1033 619 518
is_linear=0
shrinkage=0.05


Tree=21
num_leaves=31
num_cat=0
split_feature=4 3 9 5 9 5 1 9 4 2 3 1 6 9 3 9 9 3 4 3 6 5 9 4 2 9 5 5 9 2
split_gain=0.0859771 0.174043 0.0529587 0.131518 0.0915546 0.0830292 0.0682174 0.0503897 0.0500852 0.0488999 0.0467633 0.103773 0.0419173 0.0553944 0.0478951 0.0382354 0.0644457 0.0342601 0.104109 0.353153 0.0604899 0.0590278 0.0997635 0.0864898 0.051197 0.0429872 0.0358304 0.0989069 0.128002 0.0994079
threshold=-0.082406716070395 0.026271243911646817 0.056246428571428531 0.074392634865754148 0.046067857142857126 0.074392634865754148 -0.095515888923871625 0.00047285714285714287 -0.12593314166347444 -0.15599882339203783 -0.019758100862369784 -0.0084520158887747537 -0.21206859574160877 0.00095642857142857129 -0.070355304670457572 0.023289285714285745 0.011382857142857144 0.018083663898735173 -0.041631934785260498 0.021749267573759504 -0.30882134493045332 0.074392634865754148 0.33064285714285591 0.12791455801796794 -0.077319858868646882 0.023289285714285745 0.030735012391754444 0.047430275854902955 0.042128571428571439 0.24034639762535262
decision_type=2 2 2 2 2 2 2 2 2 2 2 2 2 2 2 2 2 2 2 2 2 2 2 2 2 2 2 2 2 2
left_child=1 2 3 4 8 -4 -7 -2 9 15 11 12 14 -14 -10 16 -1 21 19 -19 -20 23 -23 -9 -22 -25 -26 29 -29 -28
right_child=7 -3 5 -5 -6 6 -8 17 10 -11 -12 -13 13 -15 -16 -17 -18 18 20 -21 24 22 -24 25 26 -27 27 28 -30 -31
leaf_value=0.0006019423229746872 0.00023694461917224448 0.0041104168786043902 0.00049109357077843294 -0.0028822605671094998 -0.0026794343309190414 0.0044206663698854827 0.00098295819179545487 -1.7843805458222897e-05 0.0032771751081950417 -0.0012902352851343968 -0.00031617975270905029 0.0043242014436691532 0.0026585929930054895 0.00016432995413102403 0.00091601289629969485 0.0020637473460131633 -0.0016662148143061332 0.0072043999415737671 0.0024353302049416083 -0.00075580400298349561 -0.0018713902866104892 -0.00046191225047205226 -0.0040364422519063659 0.00070366956774265538 3.2978354253913966e-05 0.0034903208855539564 0.00046840493751181434 -0.00091982094196310345 0.00090410239649109402 0.0021831525677566111
leaf_weight=103 2110 31 260 35 26 27 31 95960 27 79 117 20 24 307 105 24 45 22 27 38 34 129 23 31 7125 25 518 262 152 101
leaf_count=103 2110 31 260 35 26 27 31 95960 27 79 117 20 24 307 105 24 45 22 27 38 34 129 23 31 7125 25 518 262 152 101
internal_value=-1.09715e-07 0.00041033 0.000317076 0.000123343 0.000243293 0.000872686 0.00258327 -4.96687e-06 0.000332589 -0.000260471 0.000580686 0.000797939 0.000645617 0.000345183 0.00139898 0.000212502 -8.77e-05 -9.85388e-06 8.77445e-05 0.00216294 7.25952e-05 -1.8256e-05 -0.0010028 -1.66974e-05 6.48079e-05 0.00194771 7.28773e-05 0.000348076 -0.000250168 0.000748194
internal_weight=107818 1261 1230 912 877 318 58 106557 851 251 600 483 463 331 132 172 148 104447 8279 60 8219 96168 152 96016 8192 56 8158 1033 414 619
internal_count=107818 1261 1230 912 877 318 58 106557 851 251 600 483 463 331 132 172 148 104447 8279 60 8219 96168 152 96016 8192 56 8158 1033 414 619
is_linear=0
shrinkage=0.05


Tree=22
num_leaves=31
num_cat=0
split_feature=4 3 8 8 9 6 6 9 8 9 9 9 9 3 2 7 4 1 9 7 8 1 6 9 6 8 6 2 8 9
split_gain=0.0775943 0.157073 0.0647613 0.176896 0.0886562 0.111912 0.0530502 0.0728394 0.0756507 0.0528372 0.0596257 0.0454767 0.0349651 0.0328373 0.0488543 0.192357 0.0314104 0.0821375 0.259854 0.0458404 0.0976197 0.15116 0.128002 0.0775964 0.076764 0.0718663 0.0563162 0.0575503 0.0400047 0.0418266
threshold=-0.082406716070395 0.026271243911646817 0.70605037051260455 0.84483610681958743 0.0015257142857142869 -0.30882134493045332 -0.30882134493045332 0.061682142857142887 -0.29791589941390523 0.013728571428571432 0.020367857142857135 0.00047285714285714287 8.0303571428571399 -0.0042971628896379946 -0.0012706152728552131 0.014358299015093558 0.028412106545837149 -0.095515888923871625 0.033714285714285766 0.62929212311110927 -0.29791589941390523 0.088463818512507633 -0.094122487431354082 0.0099214285714285828 -0.086378392121853817 1.1435061824562955 -0.12357672268802815 -0.034099549506085951 -0.40925394182062297 0.037500000000000047
decision_type=2 2 2 2 2 2 2 2 2 2 2 2 2 2 2 2 2 2 2 2 2 2 2 2 2 2 2 2 2 2
left_child=1 2 6 -4 -5 -6 7 9 -9 -1 -11 13 -7 14 -2 -16 -13 18 -18 26 24 22 -22 -23 -21 -25 28 -28 29 -19
right_child=11 -3 3 4 5 12 -8 8 -10 10 -12 16 -14 -15 15 -17 17 19 -20 20 21 23 -24 25 -26 -27 27 -29 -30 -31
leaf_value=-0.00055273162078437225 0.00032043412676905215 0.0039048961551499464 0.0040577917795580551 0.0028420925936994278 0.0032139934379503961 -0.00049749331237227822 0.00029052472219992038 0.0028369644398076668 -0.001065291707282481 -0.0046220720536075529 -0.0010201113350275491 -1.8780592878696068e-05 0.00099103075498715044 8.2386617176031818e-05 0.0053231540388660511 0.00035939233012469959 0.0009001809607177754 -0.00039610984712803304 -0.0060737495014274662 -0.0027740755005025083 0.006274131811611976 -0.0017608779286547361 0.0014750958956552276 -0.00071787966246899615 0.0010066621666774155 0.0025848896277602764 0.0024353366410091093 8.002373808097217e-05 -0.00094498591102651493 0.0019451597300185648
leaf_weight=111 611 31 39 35 27 187 684 27 23 20 27 93422 50 1385 25 89 34 65 22 29 24 32 33 28 25 40 26 10413 227 27
leaf_count=111 611 31 39 35 27 187 684 27 23 20 27 93422 50 1385 25 89 34 65 22 29 24 32 33 28 25 40 26 10413 227 27
internal_value=-1.04231e-07 0.000389813 0.000301222 0.000890607 0.000477496 0.000164008 7.78897e-05 -0.000621353 0.00104193 -0.00114771 -0.00255286 -4.71853e-06 -0.000183459 0.000225097 0.000497724 0.00144794 -9.36119e-06 7.04556e-05 -0.00183958 8.02068e-05 0.000810059 0.00144079 0.00349574 0.000269469 -0.00102373 0.00122493 6.5892e-05 8.589e-05 -0.000588525 0.000291002
internal_weight=107818 1261 1230 338 299 264 892 208 50 158 47 106557 237 2110 725 114 104447 11025 56 10969 211 157 57 100 54 68 10758 10439 319 92
internal_count=107818 1261 1230 338 299 264 892 208 50 158 47 106557 237 2110 725 114 104447 11025 56 10969 211 157 57 100 54 68 10758 10439 319 92
is_linear=0
shrinkage=0.05


Tree=23
num_leaves=31
num_cat=0
split_feature=4 2 9 5 5 0 9 8 5 8 9 6 9 4 9 5 9 9 6 9 9 2 9 5 8 9 9 7 9 2
split_gain=0.0700289 0.112469 0.0646778 0.12002 0.105709 0.0866858 0.0807409 0.0770455 0.152892 0.303195 0.100412 0.0627597 0.0586727 0.0459215 0.0410427 0.031405 0.0510845 0.224003 0.1561 0.149749 0.0849425 0.183677 0.112003 0.106879 0.105673 0.0863845 0.207184 0.107653 0.11774 0.0866904
threshold=-0.082406716070395 0.027254204805830632 0.056246428571428531 0.074392634865754148 0.074392634865754148 0.0030231566589911112 0.046067857142857126 0.35049648846511627 0.030735012391754444 0.81443658914244077 0.0015257142857142869 -0.1605180641918473 0.2418571428571423 -0.12593314166347444 0.00047285714285714287 0.032354085254017305 2.2275000000000005 0.36240714285714298 -0.18856811651634156 7.3707142857142882 0.10771428571428569 0.24034639762535262 0.046067857142857126 0.04141268979674758 -0.55862659357849254 0.022100000000000005 0.024550000000000006 0.2572326371529487 0.0079428571428571213 -0.050585255373981723
decision_type=2 2 2 2 2 2 2 2 2 2 2 2 2 2 2 2 2 2 2 2 2 2 2 2 2 2 2 2 2 2
left_child=1 2 4 -4 6 12 7 13 10 -10 11 -9 -5 -1 -2 -16 17 20 -19 -18 22 24 25 -24 -22 27 -27 -17 -29 -28
right_child=14 -3 3 5 -6 -7 -8 8 9 -11 -12 -13 -14 -15 15 16 19 18 -20 -21 21 -23 23 -25 -26 26 29 28 -30 -31
leaf_value=-0.0007226028826980011 0.0002138425202657082 0.0040899463015375654 0.0004321558075215243 0.0022536073722654866 -0.0026838604212653908 0.00034109127768517842 -0.0025463500346701879 0.0042870961489034414 0.0075520314441140119 0.00037360054243196688 -0.0001893791022377462 0.00045738793385680771 0.0059484969380057678 0.00024731725770926006 -1.3163624326205178e-05 0.00036954970838225546 0.0041283361561175796 -0.0064312188933226509 -0.00097839295963889788 0.00034615083076503309 0.002478179788952482 0.0045830850448349827 -0.0042509018109463488 -0.00061401841555040401 -0.0011131687753799338 0.0043195995935093384 0.0025441845926583153 1.8954041702641376e-05 -0.0015231455735345428 0.00014436145465319546
leaf_weight=176 2110 20 261 21 33 23 26 23 24 38 176 20 22 398 101973 1009 31 21 35 168 33 34 23 166 54 40 44 370 186 260
leaf_count=176 2110 20 261 21 33 23 26 23 24 38 176 20 22 398 101973 1009 31 21 35 168 33 34 23 166 54 40 44 370 186 260
internal_value=-9.90159e-08 0.000370323 0.000310377 0.000913855 9.44721e-05 0.00281875 0.000198541 0.000282012 0.000960377 0.00315235 0.000339818 0.00250584 0.00414402 -5.00799e-05 -4.4826e-06 -8.89313e-06 0.000167128 9.99306e-05 -0.0030232 0.000935335 0.000178748 0.00146689 0.000104456 -0.0010566 0.000249067 0.000219406 0.000936808 6.17147e-05 -0.000496928 0.000491704
internal_weight=107818 1261 1241 327 914 66 881 855 281 62 219 43 43 574 106557 104447 2474 2275 56 199 2219 121 2098 189 87 1909 344 1565 556 304
internal_count=107818 1261 1241 327 914 66 881 855 281 62 219 43 43 574 106557 104447 2474 2275 56 199 2219 121 2098 189 87 1909 344 1565 556 304
is_linear=0
shrinkage=0.05


Tree=24
num_leaves=31
num_cat=0
split_feature=4 1 9 5 9 5 8 8 7 9 1 9 9 5 9 1 8 0 5 1 5 8 6 9 9 9 5 9 6 9
split_gain=0.0632011 0.12942 0.0565614 0.127476 0.0934329 0.0865837 0.0847443 0.450525 0.0650842 0.0605508 0.0548991 0.0463638 0.056616 0.0419297 0.0384307 0.043739 0.131608 0.0352322 0.0314845 0.0535214 0.0470746 0.0760341 0.124956 0.0697271 0.061344 0.0594384 0.189322 0.065533 0.118217 0.103272
threshold=-0.082406716070395 0.055338245429923612 0.056246428571428531 0.074392634865754148 0.011085714285714312 0.074392634865754148 0.73243297683505193 0.93457397597341663 0.38520282591039928 0.0012042857142857144 -0.020355446876980984 0.046067857142857126 0.013357142857142868 0.020581078297398536 0.00095642857142857129 -0.040982017716349954 -0.36854808033387559 0.017629552106248284 0.032354085254017305 -0.043461108113016338 0.047430275854902955 1.0320256520660618 -0.027841581293258363 0.0046000000000000112 0.070792857142857171 0.36240714285714298 0.074392634865754148 0.10771428571428569 -0.098840027331690158 0.070792857142857171
decision_type=2 2 2 2 2 2 2 2 2 2 2 2 2 2 2 2 2 2 2 2 2 2 2 2 2 2 2 2 2 2
left_child=1 2 4 -4 6 11 10 -8 -5 -9 17 12 -6 -12 15 16 -2 -1 19 -16 -20 23 24 -22 -23 27 -27 29 -29 -25
right_child=14 -3 3 8 5 -7 7 9 -10 -11 13 -13 -14 -15 18 -17 -18 -19 20 -21 21 22 -24 25 -26 26 -28 28 -30 -31
leaf_value=0.00026285361005231759 0.0047373005148256195 0.0035425010501527257 0.00035445441189177094 0.0015910300478265669 -0.0017428333679628044 -0.0034746285223473724 0.0080296610773075375 0.0025156733311282901 0.0049169070553034544 -0.00015612655715338644 0.0010606814948259855 -0.0024190325581002984 0.0002660274716846809 -0.0012040268001848225 -0.00030124433101358394 8.1578085628043607e-05 0.00032487779151095042 0.0023746323056652082 0.00034986997284489491 -1.2942726123410669e-05 -0.00089843437485642372 -0.0022478475670882122 0.0019660646503325552 0.00048488907454242953 0.00034218736008965762 0.00088875744413413409 -0.0042083086723919381 0.0033173212108893648 -0.00066800919827073816 -0.0018344914625626155
leaf_weight=332 20 31 259 38 45 26 22 26 24 115 25 26 159 112 1638 8812 109 21 1423 93525 147 108 28 508 29 49 29 49 30 53
leaf_count=332 20 31 259 38 45 26 22 26 24 115 25 26 159 112 1638 8812 109 21 1423 93525 147 108 28 508 29 49 29 49 30 53
internal_value=-9.40642e-08 0.000351807 0.000271391 0.000841958 6.99031e-05 -0.000739704 0.000387299 0.00137488 0.00287847 0.000336546 5.8777e-05 -0.000430539 -0.000177104 -0.000790759 -4.25847e-06 9.49585e-05 0.00100897 0.000388484 -1.33461e-05 -1.79051e-05 0.000163519 -9.39339e-05 -0.00107754 9.36906e-05 -0.00169959 0.000296814 -0.00100631 0.000455631 0.0018039 0.000265768
internal_weight=107818 1261 1230 321 909 256 653 163 62 141 490 230 204 137 106557 8941 129 353 97616 95163 2453 1030 165 865 137 718 78 640 79 561
internal_count=107818 1261 1230 321 909 256 653 163 62 141 490 230 204 137 106557 8941 129 353 97616 95163 2453 1030 165 865 137 718 78 640 79 561
is_linear=0
shrinkage=0.05


Tree=25
num_leaves=31
num_cat=0
split_feature=2 0 1 1 9 7 7 6 7 0 0 1 1 7 2 5 5 9 7 0 9 6 6 8 8 5 6 5 7 8
split_gain=0.0635838 0.0686497 0.271375 0.0737447 0.124028 0.0647093 0.14307 0.0577204 0.0499433 0.0460411 0.126131 0.100826 0.0402031 0.0754697 0.039609 0.0742446 0.149722 0.110765 0.124538 0.125267 0.120173 0.134093 0.0908067 0.0895266 0.0607689 0.0584192 0.115624 0.0617543 0.0443948 0.0711784
threshold=-0.091436274319820085 -0.027755546861803589 0.0014600579817496408 -0.095515888923871625 0.0079428571428571213 0.042146466368614639 0.22592073565190376 -0.21206859574160877 0.015075679004692312 0.030520075287957974 0.019733346668854405 -0.0040469957386548008 0.022010457997735603 0.12691077495981609 0.24034639762535262 0.030735012391754444 0.035025806258148662 0.030614642857142865 0.62929212311110927 0.034879965954890298 0.0028214285714285707 -0.018207306692936073 -0.059181006302491172 -0.05242249853734577 0.56385184702536384 0.074392634865754148 -0.21206859574160877 0.047430275854902955 0.38520282591039928 -0.66352900412693627
decision_type=2 2 2 2 2 2 2 2 2 2 2 2 2 2 2 2 2 2 2 2 2 2 2 2 2 2 2 2 2 2
left_child=1 2 3 4 -1 8 -7 -5 -6 10 -3 -12 13 -11 28 -16 -17 20 22 23 -18 25 -19 -20 -21 27 -27 -22 -2 -30
right_child=14 9 -4 7 5 6 -8 -9 -10 12 11 -13 -14 -15 15 16 17 18 19 24 21 -23 -24 -25 -26 26 -28 -29 29 -31
leaf_value=0.0044833820130276893 -4.8095376260412592e-06 9.8912566797672711e-05 0.0065752650459762673 0.00092542156204700058 0.00079291099413799553 0.0048443121120647489 -0.00052208457178763918 -0.00071319772937959226 -0.0025305145808306407 -0.0015617386234971957 0.0041806305193209225 0.0003854151934917484 -0.0022925338513553415 0.0019159775588867398 -0.0013379719768418 0.0042305884388042616 0.0028522707254591364 0.0013013754950536947 8.3373937134941428e-05 -0.0034887791296932848 0.0007951657842461239 -0.0044807801244869123 0.0058035250384515773 0.0044020987057592723 0.0002796983791758185 -0.0017690991455310723 0.0026418014687339727 -0.00179037113828397 0.0012139152372255921 -0.00080967109115809722
leaf_weight=28 105526 1187 20 98 26 23 27 119 20 39 35 35 34 26 50 28 27 21 24 20 34 21 24 24 23 24 39 72 50 332
leaf_count=28 105526 1187 20 98 26 23 27 119 20 39 35 35 34 26 50 28 27 21 24 20 34 21 24 24 23 24 39 72 50 332
internal_value=6.31242e-08 0.000301905 0.000914651 0.00058265 0.00155535 0.000701336 0.00194646 2.68239e-05 -0.000652057 0.000138777 0.000220542 0.00228302 -0.000899379 -0.000170652 -4.81056e-06 0.00047354 0.000711272 0.000432119 0.0015509 0.00048691 -0.000269052 -0.000712608 0.00370252 0.00224274 -0.00147308 -0.000244374 0.000961458 -0.000961048 -6.75725e-06 -0.000544804
internal_weight=108056 1717 361 341 124 96 50 217 46 1356 1257 70 99 65 106339 431 381 353 136 91 217 190 45 48 43 169 63 106 105908 382
internal_count=108056 1717 361 341 124 96 50 217 46 1356 1257 70 99 65 106339 431 381 353 136 91 217 190 45 48 43 169 63 106 105908 382
is_linear=0
shrinkage=0.05


Tree=26
num_leaves=31
num_cat=0
split_feature=4 8 8 5 9 9 7 8 7 6 9 5 9 7 3 8 3 3 5 5 8 5 9 9 6 6 0 9 6 4
split_gain=0.0704036 0.118089 0.286043 0.108446 0.0851067 0.0453742 0.0443668 0.21242 0.0703839 0.0429558 0.0490064 0.038771 0.035276 0.0879262 0.0359281 0.0544572 0.239194 0.0380259 0.0515264 0.0335916 0.0846655 0.0949964 0.165826 0.299081 0.0561896 0.0821584 0.229056 0.0528294 0.0745423 0.0861383
threshold=-0.09588328024472613 0.73243297683505193 0.87472991599941985 0.047430275854902955 0.001431785714285714 0.056246428571428531 0.38520282591039928 -0.42109921130131428 0.019999311658664535 -0.24061591555815906 0.0053357142857142865 0.021171322148309652 0.0013364285714285711 0.20124214868517046 -0.0088329101890624023 -0.8519614727486432 -0.019758100862369784 -0.041399729649795984 0.018980613464703106 0.038155576249645391 -0.52549928501180143 0.074392634865754148 0.10771428571428569 8.0303571428571399 -0.012898964489365726 -0.027841581293258363 0.060163966415116905 0.013357142857142868 -0.21206859574160877 0.007019722214727798
decision_type=2 2 2 2 2 2 2 2 2 2 2 2 2 2 2 2 2 2 2 2 2 2 2 2 2 2 2 2 2 2
left_child=1 6 -3 4 -4 -6 8 -8 -1 10 -10 -7 13 14 15 16 -2 18 -17 -14 21 22 27 -24 25 -22 -27 -21 -29 -30
right_child=12 2 3 -5 5 11 7 -9 9 -11 -12 -13 19 -15 -16 17 -18 -19 -20 20 24 -23 23 -25 -26 26 -28 28 29 -31
leaf_value=0.00070677339193975924 0.0052148245939390801 0.0068458082334307783 0.0032850302097833027 0.0040837536864590058 -0.00051896236089175678 -0.0002263787144329399 0.0052820451800589981 -0.00012102831448107187 0.00049672767754167411 0.00012725826758281167 -0.0014355824253095004 0.0026255993154616314 -1.8422961470216828e-05 0.0024748214375760751 2.3849708046410055e-05 9.1816771289718186e-05 0.00033446103582665434 0.00020030380692234986 -0.0023454734960770499 0.00016123452171126515 -8.7244319274003821e-05 -0.00085532735031628023 0.0080409861469061903 0.00075000593205913906 -0.0020827133490732225 -0.00094120665307855238 0.0054463241379708056 0.0028382575798357994 -0.00090520678754811264 0.001634253282682039
leaf_weight=178 29 22 23 23 112 22 23 87 42 145 150 26 92268 38 10388 57 187 2413 35 274 1083 87 22 39 33 32 25 53 55 85
leaf_count=178 29 22 23 23 112 22 23 87 42 145 150 26 92268 38 10388 57 187 2413 35 274 1083 87 22 39 33 32 25 53 55 85
internal_value=5.99633e-08 0.000452511 0.00142654 0.000847784 0.000441077 3.22592e-05 9.71854e-05 0.00100871 -9.75081e-05 -0.000522322 -0.00101289 0.00131844 -3.54013e-06 7.31759e-05 6.6214e-05 0.000227949 0.000989695 0.000162265 -0.000835413 -1.42634e-05 0.000200388 0.00067556 0.000927809 0.00337954 -4.87431e-05 1.0135e-05 0.00186034 0.000607561 0.00124121 0.000636608
internal_weight=108056 853 228 206 183 160 625 110 515 337 192 48 107203 13147 13109 2721 216 2505 92 94056 1788 615 528 61 1173 1140 57 467 193 140
internal_count=108056 853 228 206 183 160 625 110 515 337 192 48 107203 13147 13109 2721 216 2505 92 94056 1788 615 528 61 1173 1140 57 467 193 140
is_linear=0
shrinkage=0.05


Tree=27
num_leaves=31
num_cat=0
split_feature=4 8 8 5 9 9 9 9 5 9 9 5 5 6 5 9 4 9 5 8 5 9 9 2 8 2 5 6 5 0
split_gain=0.0635392 0.106575 0.258154 0.0982499 0.0815639 0.0375242 0.035939 0.0650813 0.0709481 0.0817194 0.0553338 0.0530605 0.0356928 0.0338763 0.0331194 0.0318366 0.0567998 0.19277 0.0303164 0.0764106 0.0857342 0.149658 0.269921 0.101049 0.110272 0.0642961 0.117071 0.175735 0.0931583 0.0796108
threshold=-0.09588328024472613 0.73243297683505193 0.87472991599941985 0.04141268979674758 0.001431785714285714 0.056246428571428531 0.034957142857142832 0.49732142857142841 0.074392634865754148 0.10771428571428569 0.0060346428571428504 0.038155576249645391 0.074392634865754148 -0.21206859574160877 0.021171322148309652 0.0013364285714285711 0.089589122243289757 0.0010235714285714282 0.038155576249645391 -0.52549928501180143 0.074392634865754148 0.10771428571428569 8.0303571428571399 -0.10277709772287012 -0.72683725825561285 0.24034639762535262 0.047430275854902955 -0.045228283632123827 0.058392501977723603 0.0086580086580086996
decision_type=2 2 2 2 2 2 2 2 2 2 2 2 2 2 2 2 2 2 2 2 2 2 2 2 2 2 2 2 2 2
left_child=1 6 -3 4 -4 -6 10 8 11 -10 -1 -8 -12 -9 -7 16 -2 -18 -17 20 21 23 -23 24 -20 -21 27 -27 29 -28
right_child=15 2 3 -5 5 14 7 13 9 -11 12 -13 -14 -15 -16 18 17 -19 19 25 -22 22 -24 -25 -26 26 28 -29 -30 -31
leaf_value=0.00053206082513965723 6.3494656139654178e-05 0.0065035180125216198 0.0031207786640152337 0.0033998164937891549 -0.0005755242911820662 -0.00021505977810275828 0.0024185273230874112 -0.0011948168174130843 0.0007805124828813687 0.00509456500319926 -0.00045747301039135652 -0.00069884965345502282 -0.0026570416720278446 0.00071917502466740826 0.0025285016202939337 -1.7501814243706708e-05 -0.0012993755578265889 0.0053264838477064466 0.00074258597127886293 -0.00026476738287668528 -0.00081256097849176107 0.0076389368475330149 0.00071250565576916325 0.00029478817237844272 0.0051180263205120964 0.0059850060386056813 0.00088043016342756659 0.00047440335023193024 0.00071142469742131145 -0.002671957433567909
leaf_weight=171 13103 22 23 31 108 22 21 50 21 23 237 39 20 43 22 92268 23 21 36 870 87 22 39 407 24 23 24 39 171 46
leaf_count=171 13103 22 23 31 108 22 21 50 21 23 237 39 20 43 22 92268 23 21 36 870 87 22 39 407 24 23 24 39 171 46
internal_value=5.69645e-08 0.000429886 0.00135521 0.000805395 0.000345811 -7.40849e-05 9.23262e-05 0.000651185 0.00151057 0.00303559 -0.000164905 0.000392232 -0.000628646 -0.000309853 0.00115672 -3.36313e-06 6.95171e-05 0.00186297 -1.35502e-05 0.000190369 0.000641782 0.000881418 0.00321056 0.000577183 0.00249276 -4.63059e-05 0.00058096 0.00251866 8.24643e-05 -0.001454
internal_weight=108056 853 228 206 175 152 625 197 104 44 428 60 257 93 44 107203 13147 44 94056 1788 615 528 61 467 60 1173 303 62 241 70
internal_count=108056 853 228 206 175 152 625 197 104 44 428 60 257 93 44 107203 13147 44 94056 1788 615 528 61 467 60 1173 303 62 241 70
is_linear=0
shrinkage=0.05


Tree=28
num_leaves=31
num_cat=0
split_feature=2 3 3 8 5 5 9 8 9 0 0 7 2 5 5 9 9 6 7 0 3 6 8 5 6 9 7 6 8 9
split_gain=0.0487979 0.0873038 0.186966 0.0392641 0.105708 0.188837 0.0746252 0.095121 0.0678835 0.0386342 0.0690218 0.0463793 0.0315535 0.064772 0.137782 0.0966695 0.106349 0.117239 0.104671 0.112231 0.0997431 0.0814704 0.0543664 0.0515418 0.103403 0.0537142 0.0440951 0.0612089 0.064308 0.0665977
threshold=-0.091436274319820085 0.031596111568207304 0.018083663898735173 0.12829980202959038 0.030735012391754444 0.035025806258148662 0.056246428571428531 1.2632482426215781 0.019842857142857124 -0.050633828248297812 -0.031489344111874977 0.10916419647443178 0.24034639762535262 0.030735012391754444 0.035025806258148662 0.030614642857142865 0.0028214285714285707 -0.018207306692936073 0.62929212311110927 0.034879965954890298 0.064378114928779998 -0.059181006302491172 0.56385184702536384 0.074392634865754148 -0.21206859574160877 0.0062785714285714224 0.38520282591039928 -0.052301801724123069 -0.66352900412693627 0.070792857142857171
decision_type=2 2 2 2 2 2 2 2 2 2 2 2 2 2 2 2 2 2 2 2 2 2 2 2 2 2 2 2 2 2
left_child=1 2 3 9 -5 -6 8 -8 -7 -1 11 -11 26 -14 -15 16 -16 23 21 20 -20 -17 -21 25 -25 -18 -2 28 29 -28
right_child=12 -3 -4 4 5 6 7 -9 -10 10 -12 -13 13 14 15 18 17 -19 19 22 -22 -23 -24 24 -26 -27 27 -29 -30 -31
leaf_value=-0.0014895177144446793 -4.0118319373355381e-06 -0.0022824393073802417 0.0038789704623114736 0.00021208472751032276 0.0056416350667579818 0.00097748667252936256 0.00020548537246544254 0.0049698678575805389 -0.0025647427409976014 0.00080460158461736976 -4.9975414699672358e-06 0.0035469462734735793 -0.0012692771279253067 0.0040208552643889563 0.0026582642268665412 0.0011203474786487364 0.0006063760585478835 -0.0042187210349809564 1.2077263986261992e-05 -0.0033150370512157676 0.0045864757489074365 0.0053847776687083147 0.00024939632301380774 -0.0017070781112124679 0.002464191303237712 -0.0017548747635716439 -0.00029792437097057704 -0.0021190854017886351 -0.00056998185510716282 0.0035215079307644851
leaf_weight=39 105526 33 36 460 26 38 22 20 21 58 943 21 50 28 27 21 37 21 26 20 22 24 23 24 39 69 25 53 283 21
leaf_count=39 105526 33 36 460 26 38 22 20 21 58 943 21 50 28 27 21 37 21 26 20 22 24 23 24 39 69 25 53 283 21
internal_value=5.41143e-08 0.000264482 0.000314392 0.000236525 0.000564641 0.00184162 0.000863395 0.00247424 -0.000283307 5.49942e-05 0.000113934 0.00153358 -4.21547e-06 0.000422731 0.000644779 0.000376989 -0.00027805 -0.000695316 0.00142216 0.000446724 0.00210868 0.00339471 -0.00140848 -0.000257496 0.000875136 -0.000930665 -5.95295e-06 -0.00054218 -0.00028815 0.00144573
internal_weight=108056 1717 1684 1648 587 127 101 42 59 1061 1022 79 106339 431 381 353 217 190 136 91 48 45 43 169 63 106 105908 382 329 46
internal_count=108056 1717 1684 1648 587 127 101 42 59 1061 1022 79 106339 431 381 353 217 190 136 91 48 45 43 169 63 106 105908 382 329 46
is_linear=0
shrinkage=0.05


Tree=29
num_leaves=31
num_cat=0
split_feature=4 8 8 7 7 7 7 8 7 0 0 4 3 4 4 7 2 7 8 1 1 1 0 0 8 6 4 4 7 0
split_gain=0.0534874 0.0920978 0.233117 0.0580527 0.106454 0.0618202 0.0397277 0.186492 0.062665 0.037878 0.0359664 0.0306118 0.0268048 0.044879 0.0355324 0.0321265 0.0442956 0.0627688 0.0732775 0.0954238 0.0815316 0.0729262 0.059662 0.0678977 0.0445125 0.0404831 0.0330437 0.031818 0.120438 0.0392575
threshold=-0.09588328024472613 0.73243297683505193 0.87472991599941985 0.029966013046985655 0.043027297338834487 0.0222224774359191 0.38520282591039928 -0.42109921130131428 0.019999311658664535 0.030520075287957974 0.012558599891418944 -0.12593314166347444 -0.054474694145080986 0.06083892910536904 0.00080830542477861045 0.13924310603983706 -0.016079154353283883 0.62929212311110927 -0.062650547751392699 0.050098296357813828 0.017233635726916833 0.024211450355300149 0.021038088029189609 -0.012516904155785101 -0.6299805577173837 -0.1605180641918473 -0.030394058714961588 -0.016986295327386321 0.2572326371529487 0.030520075287957974
decision_type=2 2 2 2 2 2 2 2 2 2 2 2 2 2 2 2 2 2 2 2 2 2 2 2 2 2 2 2 2 2
left_child=1 6 -3 5 -5 -4 8 -8 -1 10 -10 -9 13 14 -2 -14 17 18 20 -20 22 -22 23 25 -23 -17 -18 28 -28 -29
right_child=12 2 3 4 -6 -7 7 11 9 -11 -12 -13 15 -15 -16 16 26 -19 19 -21 21 24 -24 -25 -26 -27 27 29 -30 -31
leaf_value=0.00065528680474262425 -0.00041106104304729652 0.0061468879660506823 0.00051009062357479709 0.0048374409222742545 0.00078308569921372348 -0.0025380947854414231 0.004947226492526091 0.0003970556454051029 -0.00054167223909514309 -0.002418776384244363 0.0012035661890298468 -0.0018320033996133134 -7.1261318106332124e-06 -0.0022912527394902131 0.0011221218200911868 0.0032085213102758508 -0.0010222722547041485 -0.0011338511729896393 0.000490495510166511 -0.0034092117349029563 0.0050550836604088545 0.0035271495438950217 0.0032028537429869179 -0.00032427924780345095 0.00091458729647066715 0.00055233217080967738 0.0040643124822633001 0.00016481115251653822 -0.0011103595700621119 -0.00022900232935681335
leaf_weight=178 377 22 80 20 85 21 23 67 280 24 33 20 102396 29 42 26 67 46 62 21 20 23 20 126 56 32 22 3014 23 801
leaf_count=178 377 22 80 20 85 21 23 67 280 24 33 20 102396 29 42 26 67 46 62 21 20 23 20 126 56 32 22 3014 23 801
internal_value=5.14134e-08 0.000394418 0.0012546 0.000732128 0.00155534 -0.000123691 8.0622e-05 0.000943172 -0.000103612 -0.000504455 -0.000357669 -0.000115372 -3.08651e-06 -0.000389034 -0.000257377 -1.46687e-06 0.000131473 0.000612031 0.000820089 -0.000496177 0.00118065 0.00235801 0.000609285 0.000327375 0.00167521 0.00174304 7.86082e-05 9.77167e-05 0.00141948 8.21258e-05
internal_weight=108056 853 228 206 105 101 625 110 515 337 313 87 107203 448 419 106755 4359 432 386 83 303 99 204 184 79 58 3927 3860 45 3815
internal_count=108056 853 228 206 105 101 625 110 515 337 313 87 107203 448 419 106755 4359 432 386 83 303 99 204 184 79 58 3927 3860 45 3815
is_linear=0
shrinkage=0.05


Tree=30
num_leaves=31
num_cat=0
split_feature=7 4 9 5 9 9 6 8 4 5 9 8 5 4 9 6 9 1 4 8 9 8 9 4 6 4 6 9 0 4
split_gain=0.0550254 0.0813054 0.153478 0.0811217 0.201096 0.0755028 0.152652 0.305635 0.0865475 0.215176 0.104269 0.0820056 0.0658988 0.091075 0.0760522 0.0715415 0.0819209 0.135035 0.0855558 0.0694493 0.0623426 0.132716 0.109109 0.0944567 0.060992 0.0601214 0.0574862 0.0657886 0.0546942 0.119558
threshold=0.13924310603983706 -0.12593314166347444 0.2418571428571423 0.074392634865754148 0.36240714285714298 0.022700000000000064 -0.21206859574160877 -0.48727489367320415 0.18379537894349277 0.038155576249645391 3.3828571428571261 1.1435061824562955 0.047430275854902955 0.013141667070691089 0.012357142857142874 -0.11071300055568016 0.0090285714285713876 0.018582004268117628 -0.018751222996089719 -0.51994041964556981 0.10771428571428569 -0.29791589941390523 0.019335714285714314 0.12791455801796794 -0.12357672268802815 0.18379537894349277 -0.21206859574160877 0.0062785714285714224 0.024643722924259984 0.18379537894349277
decision_type=2 2 2 2 2 2 2 2 2 2 2 2 2 2 2 2 2 2 2 2 2 2 2 2 2 2 2 2 2 2
left_child=-1 2 -2 5 20 12 7 -7 -8 -10 11 -11 13 15 25 16 17 19 -18 -3 22 -22 26 -24 -15 -14 -5 -28 29 -26
right_child=1 3 -4 4 -6 6 8 -9 9 10 -12 -13 14 24 -16 -17 18 -19 -20 -21 21 -23 23 -25 28 -27 27 -29 -30 -31
leaf_value=-4.8825995080733496e-06 0.00033040850498333675 0.0033260981601887143 0.0041263356671914003 -0.0011050025212171021 -0.0040610285693362946 0.007600746445611796 0.00025239911035065038 0.00040970908796427672 -0.0012395809355075472 0.0023910493966901587 0.00066433361886690068 0.0065919680108961001 0.00013239531743403692 -0.0011501256120978608 -0.0020061380955993607 -0.00024795833053170048 -0.0013985786334766697 0.0059069287490274291 0.0023239200772187706 -0.00011718697023752612 -0.0010427842016464898 0.0039181495013718417 -0.00038686958932278992 -0.0034172638192022636 0.00014380819275957983 -0.0017158439114097167 0.00032283918015648029 0.0036358222904432896 -0.00041513007677794348 0.0027423729629093862
leaf_weight=103406 95 27 37 32 38 22 1702 45 40 21 24 26 220 109 78 68 33 24 29 32 28 26 60 45 1173 55 43 23 428 46
leaf_count=103406 95 27 37 32 38 22 1702 45 40 21 24 26 220 109 78 68 33 24 29 32 28 26 60 45 1173 55 43 23 428 46
internal_value=2.66728e-06 0.000171322 0.00139442 0.000135421 -0.000666062 0.000191688 0.000427234 0.00277095 0.000340622 0.00169337 0.00334574 0.00471496 9.79312e-07 0.000113762 -0.000628111 0.00109014 0.00171767 0.00274483 0.00034259 0.00145855 -0.000164082 0.00134581 -0.00056573 -0.00168561 -4.67153e-06 -0.000237253 0.000634142 0.00147736 7.11357e-05 0.000241867
internal_weight=108035 4629 132 4497 295 4202 1880 67 1813 111 71 47 2322 1969 353 213 145 83 62 59 257 54 203 105 1756 275 98 66 1647 1219
internal_count=108035 4629 132 4497 295 4202 1880 67 1813 111 71 47 2322 1969 353 213 145 83 62 59 257 54 203 105 1756 275 98 66 1647 1219
is_linear=0
shrinkage=0.05


Tree=31
num_leaves=31
num_cat=0
split_feature=7 8 0 9 1 8 9 9 7 3 5 6 9 6 9 8 8 3 1 6 5 9 1 6 1 9 9 1 6 3
split_gain=0.0496604 0.0420094 0.138371 0.0692061 0.0722071 0.077256 0.0538017 0.0694859 0.133329 0.0460612 0.0435761 0.0679615 0.0559288 0.0509292 0.0511904 0.0359941 0.0358904 0.0351275 0.0403308 0.0310822 0.0294183 0.0551778 0.0605818 0.0431456 0.0356633 0.0635787 0.0292761 0.0282361 0.079125 0.0856827
threshold=0.13924310603983706 -0.50867254802463668 -0.038061009560025942 0.0047642857142857166 0.015994775040863999 -0.84425628419236509 0.012021428571428542 0.0082142857142857243 0.18323813615474696 0.015862621005037218 0.074392634865754148 -0.035711729107522731 0.01552142857142857 -0.064370186916274316 0.038962500000000004 -0.46006573682013419 -0.55302559887988412 -0.046392926292260099 -0.046717993011026464 -0.12883302517732995 0.038155576249645391 0.038962500000000004 0.038118248705803832 -0.30882134493045332 -0.061988681334646682 0.0049428571428571403 0.017857142857142915 0.06230296291659488 -0.059898947524770978 0.021749267573759504
decision_type=2 2 2 2 2 2 2 2 2 2 2 2 2 2 2 2 2 2 2 2 2 2 2 2 2 2 2 2 2 2
left_child=16 2 -2 -4 6 -6 7 -5 -9 26 11 12 -7 14 -14 -3 17 18 -1 -16 24 22 23 -22 25 -19 -8 -17 29 -29
right_child=1 15 3 4 5 10 9 8 -10 -11 -12 -13 13 -15 19 27 -18 20 -20 -21 21 -23 -24 -25 -26 -27 -28 28 -30 -31
leaf_value=-0.00039347118693403905 0.0038325596835608756 -0.00062141169356354198 -0.00050944476964650675 0.00014904074998210289 -0.00010810800405306508 0.0010176950823873856 -0.0019713012945430822 0.00541990303053436 0.00039479197073502076 0.0014268313264685938 -0.00033474052408044894 0.00052910695409907839 0.00067628615331065303 0.0047236730062943551 0.0048361715476494286 0.0002148138473657732 1.6765075214776494e-05 0.0034587622662365907 -0.0024081925480371161 0.0021410339056392729 -0.0020628880726993276 0.0023292405943253209 0.0025839331074773027 0.00018767785067206851 -4.7662268929149395e-05 -0.00035832159725638729 -0.00016894778286670139 0.0020736944373929873 0.00018849159962746364 -0.00097069291328878932
leaf_weight=125 29 176 200 90 100 52 24 22 33 44 28 76 29 31 20 2209 67676 20 31 23 24 35 24 189 35258 24 368 25 744 306
leaf_count=125 29 176 200 90 100 52 24 22 33 44 28 76 29 31 20 2209 67676 20 31 23 24 35 24 189 35258 24 368 25 744 306
internal_value=2.53391e-06 0.000162756 0.000421894 0.000335131 0.000514828 0.00107232 0.000170355 0.00100469 0.00240484 -0.000107118 0.00152808 0.00175388 0.00235441 0.00302926 0.00229972 7.52033e-05 -4.63847e-06 -4.51788e-05 -0.000793832 0.00339459 -4.18958e-05 0.000476102 0.000202431 -6.5907e-05 -4.58869e-05 0.00137672 -0.000279296 0.000112537 -9.76297e-05 -0.000740754
internal_weight=108035 4629 1169 1140 940 359 581 145 55 436 259 231 155 103 72 3460 103406 35730 156 43 35574 272 237 213 35302 44 392 3284 1075 331
internal_count=108035 4629 1169 1140 940 359 581 145 55 436 259 231 155 103 72 3460 103406 35730 156 43 35574 272 237 213 35302 44 392 3284 1075 331
is_linear=0
shrinkage=0.05


Tree=32
num_leaves=31
num_cat=0
split_feature=7 4 9 7 6 9 8 6 9 3 8 0 9 4 4 0 6 8 7 8 6 6 8 9 6 9 6 8 3 0
split_gain=0.0448185 0.0719452 0.13664 0.0511312 0.094455 0.10995 0.113405 0.0911817 0.1949 0.0719135 0.064701 0.0850787 0.0540618 0.0745472 0.0459186 0.0605896 0.0659139 0.127245 0.075748 0.0675371 0.0633053 0.0491837 0.0513168 0.0468848 0.200853 0.091979 0.0482119 0.0443415 0.0403968 0.0443719
threshold=0.13924310603983706 -0.12593314166347444 0.2418571428571423 0.30538131317203226 -0.21206859574160877 0.029714285714285721 -0.49294968436151759 -0.18856811651634156 0.36240714285714298 -0.041399729649795984 -0.46006573682013419 -0.0021432637817525575 0.008471428571428569 -0.014169450407154836 0.18379537894349277 -0.0032768699067965974 -0.055233389500344281 2.4556002803152874 0.62929212311110927 0.09162873056883919 -0.046691319110525036 -0.080224766479361206 0.93457397597341663 0.042128571428571439 -0.026174422231386826 0.01517142857142856 -0.030775633707941282 2.4556002803152874 0.00016268588366807893 -0.050633828248297812
decision_type=2 2 2 2 2 2 2 2 2 2 2 2 2 2 2 2 2 2 2 2 2 2 2 2 2 2 2 2 2 2
left_child=-1 2 -2 4 5 10 -7 8 9 -5 -3 -12 13 -6 -9 21 17 18 -17 -20 -18 22 -16 25 -25 26 -22 -28 29 -14
right_child=1 3 -4 7 12 6 -8 14 -10 -11 11 -13 28 -15 15 16 20 -19 19 -21 23 -23 -24 24 -26 -27 27 -29 -30 -31
leaf_value=-4.4065548742035012e-06 0.0003012110563423975 -0.00099056126363575455 0.0038828616316833008 0.0014785208905647908 0.0023023960390673895 0.0051301144483600625 0.0011225550571774565 -0.00021740192689830097 -0.0057547970023006205 -0.00098884933145079886 -0.00043649153158185075 0.0034972056918949994 0.0020207158850098494 -0.00013982459088353699 0.0021325744379757216 -0.0019497168908730663 0.0031789513375691096 -0.0044519318314269187 -0.00083845415618270629 0.0030597320962697269 0.0026179240277269858 0.0029577447313931769 -0.0013304477935889736 -0.0014232168034650386 0.0051273200576278299 -0.0033005134703125807 -0.0013645132748505977 0.0015576708574025404 0.00047052487933947715 -0.00018782924040510913
leaf_weight=103406 95 50 37 35 32 31 41 551 20 189 28 27 24 1327 23 29 23 20 20 25 20 40 20 25 22 20 34 21 1366 434
leaf_count=103406 95 50 37 35 32 31 41 551 20 189 28 27 24 1327 23 29 23 20 20 25 20 40 20 25 22 20 34 21 1366 434
internal_value=2.40721e-06 0.000154618 0.00130516 0.000120846 0.000218922 0.00134312 0.00284803 -0.000168982 -0.00102557 -0.000603323 0.000311188 0.0014946 0.000156408 -8.23183e-05 6.50702e-05 0.000520164 0.000143421 -0.000913364 4.30058e-05 0.0013272 0.000745469 0.00169578 0.000521866 0.000351313 0.00164299 -0.000287728 0.000515682 -0.00024877 0.000334274 -7.20976e-05
internal_weight=108035 4629 132 4497 3360 177 72 1137 244 224 105 55 3183 1359 893 342 259 94 74 45 165 83 43 142 47 95 75 55 1824 458
internal_count=108035 4629 132 4497 3360 177 72 1137 244 224 105 55 3183 1359 893 342 259 94 74 45 165 83 43 142 47 95 75 55 1824 458
is_linear=0
shrinkage=0.05


Tree=33
num_leaves=31
